digraph Tree {
node [shape=box, style="filled", color="black", fontname="helvetica"] ;
edge [fontname="helvetica"] ;
0 [label="sleeves_short <= 0.5\nentropy = 1.404\nsamples = 16000\nvalue = [7196, 1873, 6931]\nclass = Low", fillcolor="#fefbf9"] ;
1 [label="material_silk <= 0.5\nentropy = 1.311\nsamples = 8110\nvalue = [1836, 1181, 5093]\nclass = High", fillcolor="#be98f2"] ;
0 -> 1 [labeldistance=2.5, labelangle=45, headlabel="True"] ;
2 [label="size_S <= 0.5\nentropy = 1.244\nsamples = 7646\nvalue = [1836, 827, 4983]\nclass = High", fillcolor="#bb94f1"] ;
1 -> 2 ;
3 [label="material_linen <= 0.5\nentropy = 1.176\nsamples = 6702\nvalue = [1189, 827, 4686]\nclass = High", fillcolor="#af81ef"] ;
2 -> 3 ;
4 [label="color_white <= 0.5\nentropy = 1.043\nsamples = 5528\nvalue = [583, 768, 4177]\nclass = High", fillcolor="#a571ec"] ;
3 -> 4 ;
5 [label="size_XS <= 0.5\nentropy = 0.793\nsamples = 4662\nvalue = [264, 495, 3903]\nclass = High", fillcolor="#985dea"] ;
4 -> 5 ;
6 [label="size_3XL <= 0.5\nentropy = 0.648\nsamples = 4197\nvalue = [74, 495, 3628]\nclass = High", fillcolor="#9457e9"] ;
5 -> 6 ;
7 [label="size_L <= 0.5\nentropy = 0.502\nsamples = 3738\nvalue = [74, 260, 3404]\nclass = High", fillcolor="#8d4ce7"] ;
6 -> 7 ;
8 [label="color_green <= 0.5\nentropy = 0.476\nsamples = 2544\nvalue = [0, 260, 2284]\nclass = High", fillcolor="#8f50e8"] ;
7 -> 8 ;
9 [label="material_cotton <= 0.5\nentropy = 0.374\nsamples = 2355\nvalue = [0, 170, 2185]\nclass = High", fillcolor="#8b48e7"] ;
8 -> 9 ;
10 [label="size_XXL <= 0.5\nentropy = 0.207\nsamples = 1724\nvalue = [0, 56, 1668]\nclass = High", fillcolor="#8540e6"] ;
9 -> 10 ;
11 [label="entropy = 0.0\nsamples = 1222\nvalue = [0, 0, 1222]\nclass = High", fillcolor="#8139e5"] ;
10 -> 11 ;
12 [label="color_violet <= 0.5\nentropy = 0.505\nsamples = 502\nvalue = [0, 56, 446]\nclass = High", fillcolor="#9152e8"] ;
10 -> 12 ;
13 [label="entropy = 0.394\nsamples = 463\nvalue = [0, 36, 427]\nclass = High", fillcolor="#8c4ae7"] ;
12 -> 13 ;
14 [label="entropy = 1.0\nsamples = 39\nvalue = [0, 20, 19]\nclass = Medium", fillcolor="#f5fef9"] ;
12 -> 14 ;
15 [label="color_yellow <= 0.5\nentropy = 0.682\nsamples = 631\nvalue = [0, 114, 517]\nclass = High", fillcolor="#9d65eb"] ;
9 -> 15 ;
16 [label="color_orange <= 0.5\nentropy = 0.589\nsamples = 585\nvalue = [0, 83, 502]\nclass = High", fillcolor="#965ae9"] ;
15 -> 16 ;
17 [label="entropy = 0.454\nsamples = 535\nvalue = [0, 51, 484]\nclass = High", fillcolor="#8e4ee8"] ;
16 -> 17 ;
18 [label="entropy = 0.943\nsamples = 50\nvalue = [0, 32, 18]\nclass = Medium", fillcolor="#a8f4c8"] ;
16 -> 18 ;
19 [label="size_XXL <= 0.5\nentropy = 0.911\nsamples = 46\nvalue = [0, 31, 15]\nclass = Medium", fillcolor="#99f2be"] ;
15 -> 19 ;
20 [label="entropy = 0.994\nsamples = 33\nvalue = [0, 18, 15]\nclass = Medium", fillcolor="#defbea"] ;
19 -> 20 ;
21 [label="entropy = 0.0\nsamples = 13\nvalue = [0, 13, 0]\nclass = Medium", fillcolor="#39e581"] ;
19 -> 21 ;
22 [label="size_XXL <= 0.5\nentropy = 0.998\nsamples = 189\nvalue = [0, 90, 99]\nclass = High", fillcolor="#f4edfd"] ;
8 -> 22 ;
23 [label="material_cotton <= 0.5\nentropy = 0.859\nsamples = 138\nvalue = [0, 39, 99]\nclass = High", fillcolor="#b387ef"] ;
22 -> 23 ;
24 [label="entropy = 0.0\nsamples = 99\nvalue = [0, 0, 99]\nclass = High", fillcolor="#8139e5"] ;
23 -> 24 ;
25 [label="entropy = 0.0\nsamples = 39\nvalue = [0, 39, 0]\nclass = Medium", fillcolor="#39e581"] ;
23 -> 25 ;
26 [label="entropy = 0.0\nsamples = 51\nvalue = [0, 51, 0]\nclass = Medium", fillcolor="#39e581"] ;
22 -> 26 ;
27 [label="color_black <= 0.5\nentropy = 0.335\nsamples = 1194\nvalue = [74, 0, 1120]\nclass = High", fillcolor="#8946e7"] ;
7 -> 27 ;
28 [label="entropy = 0.0\nsamples = 985\nvalue = [0, 0, 985]\nclass = High", fillcolor="#8139e5"] ;
27 -> 28 ;
29 [label="material_cotton <= 0.5\nentropy = 0.938\nsamples = 209\nvalue = [74, 0, 135]\nclass = High", fillcolor="#c6a6f3"] ;
27 -> 29 ;
30 [label="material_nylon <= 0.5\nentropy = 0.998\nsamples = 156\nvalue = [74, 0, 82]\nclass = High", fillcolor="#f3ecfc"] ;
29 -> 30 ;
31 [label="entropy = 0.992\nsamples = 83\nvalue = [37, 0, 46]\nclass = High", fillcolor="#e6d8fa"] ;
30 -> 31 ;
32 [label="entropy = 1.0\nsamples = 73\nvalue = [37, 0, 36]\nclass = Low", fillcolor="#fefcfa"] ;
30 -> 32 ;
33 [label="entropy = 0.0\nsamples = 53\nvalue = [0, 0, 53]\nclass = High", fillcolor="#8139e5"] ;
29 -> 33 ;
34 [label="color_black <= 0.5\nentropy = 1.0\nsamples = 459\nvalue = [0, 235, 224]\nclass = Medium", fillcolor="#f6fef9"] ;
6 -> 34 ;
35 [label="material_cotton <= 0.5\nentropy = 0.96\nsamples = 381\nvalue = [0, 235, 146]\nclass = Medium", fillcolor="#b4f5cf"] ;
34 -> 35 ;
36 [label="color_cream <= 0.5\nentropy = 1.0\nsamples = 295\nvalue = [0, 149, 146]\nclass = Medium", fillcolor="#fbfefc"] ;
35 -> 36 ;
37 [label="color_navy <= 0.5\nentropy = 0.97\nsamples = 248\nvalue = [0, 149, 99]\nclass = Medium", fillcolor="#bdf6d5"] ;
36 -> 37 ;
38 [label="color_blue <= 0.5\nentropy = 0.825\nsamples = 201\nvalue = [0, 149, 52]\nclass = Medium", fillcolor="#7eeead"] ;
37 -> 38 ;
39 [label="entropy = 0.645\nsamples = 152\nvalue = [0, 127, 25]\nclass = Medium", fillcolor="#60ea9a"] ;
38 -> 39 ;
40 [label="entropy = 0.992\nsamples = 49\nvalue = [0, 22, 27]\nclass = High", fillcolor="#e8dafa"] ;
38 -> 40 ;
41 [label="entropy = 0.0\nsamples = 47\nvalue = [0, 0, 47]\nclass = High", fillcolor="#8139e5"] ;
37 -> 41 ;
42 [label="entropy = 0.0\nsamples = 47\nvalue = [0, 0, 47]\nclass = High", fillcolor="#8139e5"] ;
36 -> 42 ;
43 [label="entropy = 0.0\nsamples = 86\nvalue = [0, 86, 0]\nclass = Medium", fillcolor="#39e581"] ;
35 -> 43 ;
44 [label="entropy = 0.0\nsamples = 78\nvalue = [0, 0, 78]\nclass = High", fillcolor="#8139e5"] ;
34 -> 44 ;
45 [label="color_black <= 0.5\nentropy = 0.976\nsamples = 465\nvalue = [190, 0, 275]\nclass = High", fillcolor="#d8c2f7"] ;
5 -> 45 ;
46 [label="material_cotton <= 0.5\nentropy = 1.0\nsamples = 371\nvalue = [190, 0, 181]\nclass = Low", fillcolor="#fef9f6"] ;
45 -> 46 ;
47 [label="color_yellow <= 0.5\nentropy = 0.946\nsamples = 275\nvalue = [175, 0, 100]\nclass = Low", fillcolor="#f4c9aa"] ;
46 -> 47 ;
48 [label="color_orange <= 0.5\nentropy = 0.871\nsamples = 247\nvalue = [175, 0, 72]\nclass = Low", fillcolor="#f0b58a"] ;
47 -> 48 ;
49 [label="color_violet <= 0.5\nentropy = 0.731\nsamples = 220\nvalue = [175, 0, 45]\nclass = Low", fillcolor="#eca16c"] ;
48 -> 49 ;
50 [label="color_green <= 0.5\nentropy = 0.491\nsamples = 196\nvalue = [175, 0, 21]\nclass = Low", fillcolor="#e89051"] ;
49 -> 50 ;
51 [label="entropy = 0.0\nsamples = 175\nvalue = [175, 0, 0]\nclass = Low", fillcolor="#e58139"] ;
50 -> 51 ;
52 [label="entropy = 0.0\nsamples = 21\nvalue = [0, 0, 21]\nclass = High", fillcolor="#8139e5"] ;
50 -> 52 ;
53 [label="entropy = 0.0\nsamples = 24\nvalue = [0, 0, 24]\nclass = High", fillcolor="#8139e5"] ;
49 -> 53 ;
54 [label="entropy = 0.0\nsamples = 27\nvalue = [0, 0, 27]\nclass = High", fillcolor="#8139e5"] ;
48 -> 54 ;
55 [label="entropy = 0.0\nsamples = 28\nvalue = [0, 0, 28]\nclass = High", fillcolor="#8139e5"] ;
47 -> 55 ;
56 [label="color_cream <= 0.5\nentropy = 0.625\nsamples = 96\nvalue = [15, 0, 81]\nclass = High", fillcolor="#985eea"] ;
46 -> 56 ;
57 [label="color_navy <= 0.5\nentropy = 0.391\nsamples = 78\nvalue = [6, 0, 72]\nclass = High", fillcolor="#8c49e7"] ;
56 -> 57 ;
58 [label="entropy = 0.0\nsamples = 64\nvalue = [0, 0, 64]\nclass = High", fillcolor="#8139e5"] ;
57 -> 58 ;
59 [label="entropy = 0.985\nsamples = 14\nvalue = [6, 0, 8]\nclass = High", fillcolor="#e0cef8"] ;
57 -> 59 ;
60 [label="entropy = 1.0\nsamples = 18\nvalue = [9, 0, 9]\nclass = Low", fillcolor="#ffffff"] ;
56 -> 60 ;
61 [label="entropy = 0.0\nsamples = 94\nvalue = [0, 0, 94]\nclass = High", fillcolor="#8139e5"] ;
45 -> 61 ;
62 [label="size_L <= 0.5\nentropy = 1.581\nsamples = 866\nvalue = [319, 273, 274]\nclass = Low", fillcolor="#fdf5f0"] ;
4 -> 62 ;
63 [label="material_cotton <= 0.5\nentropy = 1.4\nsamples = 618\nvalue = [71, 273, 274]\nclass = High", fillcolor="#fffeff"] ;
62 -> 63 ;
64 [label="size_M <= 0.5\nentropy = 0.961\nsamples = 443\nvalue = [0, 273, 170]\nclass = Medium", fillcolor="#b4f5cf"] ;
63 -> 64 ;
65 [label="size_XS <= 0.5\nentropy = 0.711\nsamples = 339\nvalue = [0, 273, 66]\nclass = Medium", fillcolor="#69eb9f"] ;
64 -> 65 ;
66 [label="entropy = 0.0\nsamples = 273\nvalue = [0, 273, 0]\nclass = Medium", fillcolor="#39e581"] ;
65 -> 66 ;
67 [label="entropy = 0.0\nsamples = 66\nvalue = [0, 0, 66]\nclass = High", fillcolor="#8139e5"] ;
65 -> 67 ;
68 [label="entropy = 0.0\nsamples = 104\nvalue = [0, 0, 104]\nclass = High", fillcolor="#8139e5"] ;
64 -> 68 ;
69 [label="size_M <= 0.5\nentropy = 0.974\nsamples = 175\nvalue = [71, 0, 104]\nclass = High", fillcolor="#d7c0f7"] ;
63 -> 69 ;
70 [label="size_XS <= 0.5\nentropy = 0.668\nsamples = 126\nvalue = [22, 0, 104]\nclass = High", fillcolor="#9c63ea"] ;
69 -> 70 ;
71 [label="entropy = 0.0\nsamples = 104\nvalue = [0, 0, 104]\nclass = High", fillcolor="#8139e5"] ;
70 -> 71 ;
72 [label="entropy = 0.0\nsamples = 22\nvalue = [22, 0, 0]\nclass = Low", fillcolor="#e58139"] ;
70 -> 72 ;
73 [label="entropy = 0.0\nsamples = 49\nvalue = [49, 0, 0]\nclass = Low", fillcolor="#e58139"] ;
69 -> 73 ;
74 [label="entropy = 0.0\nsamples = 248\nvalue = [248, 0, 0]\nclass = Low", fillcolor="#e58139"] ;
62 -> 74 ;
75 [label="color_black <= 0.5\nentropy = 1.232\nsamples = 1174\nvalue = [606, 59, 509]\nclass = Low", fillcolor="#fbede2"] ;
3 -> 75 ;
76 [label="size_3XL <= 0.5\nentropy = 1.027\nsamples = 980\nvalue = [606, 10, 364]\nclass = Low", fillcolor="#f5ceb1"] ;
75 -> 76 ;
77 [label="size_L <= 0.5\nentropy = 0.892\nsamples = 877\nvalue = [606, 0, 271]\nclass = Low", fillcolor="#f1b992"] ;
76 -> 77 ;
78 [label="size_XS <= 0.5\nentropy = 0.977\nsamples = 654\nvalue = [385, 0, 269]\nclass = Low", fillcolor="#f7d9c3"] ;
77 -> 78 ;
79 [label="size_XXL <= 0.5\nentropy = 0.999\nsamples = 557\nvalue = [288, 0, 269]\nclass = Low", fillcolor="#fdf7f2"] ;
78 -> 79 ;
80 [label="color_yellow <= 0.5\nentropy = 0.953\nsamples = 407\nvalue = [255, 0, 152]\nclass = Low", fillcolor="#f4ccaf"] ;
79 -> 80 ;
81 [label="color_violet <= 0.5\nentropy = 0.898\nsamples = 372\nvalue = [255, 0, 117]\nclass = Low", fillcolor="#f1bb94"] ;
80 -> 81 ;
82 [label="color_orange <= 0.5\nentropy = 0.804\nsamples = 338\nvalue = [255, 0, 83]\nclass = Low", fillcolor="#edaa79"] ;
81 -> 82 ;
83 [label="entropy = 0.686\nsamples = 312\nvalue = [255, 0, 57]\nclass = Low", fillcolor="#eb9d65"] ;
82 -> 83 ;
84 [label="entropy = 0.0\nsamples = 26\nvalue = [0, 0, 26]\nclass = High", fillcolor="#8139e5"] ;
82 -> 84 ;
85 [label="entropy = 0.0\nsamples = 34\nvalue = [0, 0, 34]\nclass = High", fillcolor="#8139e5"] ;
81 -> 85 ;
86 [label="entropy = 0.0\nsamples = 35\nvalue = [0, 0, 35]\nclass = High", fillcolor="#8139e5"] ;
80 -> 86 ;
87 [label="color_navy <= 0.5\nentropy = 0.76\nsamples = 150\nvalue = [33, 0, 117]\nclass = High", fillcolor="#a571ec"] ;
79 -> 87 ;
88 [label="color_cream <= 0.5\nentropy = 0.527\nsamples = 126\nvalue = [15, 0, 111]\nclass = High", fillcolor="#9254e9"] ;
87 -> 88 ;
89 [label="entropy = 0.0\nsamples = 102\nvalue = [0, 0, 102]\nclass = High", fillcolor="#8139e5"] ;
88 -> 89 ;
90 [label="entropy = 0.954\nsamples = 24\nvalue = [15, 0, 9]\nclass = Low", fillcolor="#f5cdb0"] ;
88 -> 90 ;
91 [label="entropy = 0.811\nsamples = 24\nvalue = [18, 0, 6]\nclass = Low", fillcolor="#eeab7b"] ;
87 -> 91 ;
92 [label="entropy = 0.0\nsamples = 97\nvalue = [97, 0, 0]\nclass = Low", fillcolor="#e58139"] ;
78 -> 92 ;
93 [label="color_green <= 0.5\nentropy = 0.074\nsamples = 223\nvalue = [221, 0, 2]\nclass = Low", fillcolor="#e5823b"] ;
77 -> 93 ;
94 [label="entropy = 0.0\nsamples = 209\nvalue = [209, 0, 0]\nclass = Low", fillcolor="#e58139"] ;
93 -> 94 ;
95 [label="entropy = 0.592\nsamples = 14\nvalue = [12, 0, 2]\nclass = Low", fillcolor="#e9965a"] ;
93 -> 95 ;
96 [label="color_white <= 0.5\nentropy = 0.46\nsamples = 103\nvalue = [0, 10, 93]\nclass = High", fillcolor="#8f4ee8"] ;
76 -> 96 ;
97 [label="entropy = 0.0\nsamples = 87\nvalue = [0, 0, 87]\nclass = High", fillcolor="#8139e5"] ;
96 -> 97 ;
98 [label="entropy = 0.954\nsamples = 16\nvalue = [0, 10, 6]\nclass = Medium", fillcolor="#b0f5cd"] ;
96 -> 98 ;
99 [label="size_3XL <= 0.5\nentropy = 0.815\nsamples = 194\nvalue = [0, 49, 145]\nclass = High", fillcolor="#ac7cee"] ;
75 -> 99 ;
100 [label="size_XS <= 0.5\nentropy = 0.484\nsamples = 162\nvalue = [0, 17, 145]\nclass = High", fillcolor="#9050e8"] ;
99 -> 100 ;
101 [label="entropy = 0.0\nsamples = 145\nvalue = [0, 0, 145]\nclass = High", fillcolor="#8139e5"] ;
100 -> 101 ;
102 [label="entropy = 0.0\nsamples = 17\nvalue = [0, 17, 0]\nclass = Medium", fillcolor="#39e581"] ;
100 -> 102 ;
103 [label="entropy = 0.0\nsamples = 32\nvalue = [0, 32, 0]\nclass = Medium", fillcolor="#39e581"] ;
99 -> 103 ;
104 [label="color_black <= 0.5\nentropy = 0.898\nsamples = 944\nvalue = [647, 0, 297]\nclass = Low", fillcolor="#f1bb94"] ;
2 -> 104 ;
105 [label="color_white <= 0.5\nentropy = 0.724\nsamples = 810\nvalue = [647, 0, 163]\nclass = Low", fillcolor="#eca16b"] ;
104 -> 105 ;
106 [label="material_cotton <= 0.5\nentropy = 0.479\nsamples = 650\nvalue = [583, 0, 67]\nclass = Low", fillcolor="#e88f50"] ;
105 -> 106 ;
107 [label="color_green <= 0.5\nentropy = 0.155\nsamples = 491\nvalue = [480, 0, 11]\nclass = Low", fillcolor="#e6843e"] ;
106 -> 107 ;
108 [label="entropy = 0.0\nsamples = 462\nvalue = [462, 0, 0]\nclass = Low", fillcolor="#e58139"] ;
107 -> 108 ;
109 [label="material_linen <= 0.5\nentropy = 0.958\nsamples = 29\nvalue = [18, 0, 11]\nclass = Low", fillcolor="#f5ceb2"] ;
107 -> 109 ;
110 [label="material_polyester <= 0.5\nentropy = 0.998\nsamples = 21\nvalue = [10, 0, 11]\nclass = High", fillcolor="#f4edfd"] ;
109 -> 110 ;
111 [label="entropy = 0.985\nsamples = 14\nvalue = [8, 0, 6]\nclass = Low", fillcolor="#f8e0ce"] ;
110 -> 111 ;
112 [label="entropy = 0.863\nsamples = 7\nvalue = [2, 0, 5]\nclass = High", fillcolor="#b388ef"] ;
110 -> 112 ;
113 [label="entropy = 0.0\nsamples = 8\nvalue = [8, 0, 0]\nclass = Low", fillcolor="#e58139"] ;
109 -> 113 ;
114 [label="color_violet <= 0.5\nentropy = 0.936\nsamples = 159\nvalue = [103, 0, 56]\nclass = Low", fillcolor="#f3c6a5"] ;
106 -> 114 ;
115 [label="color_yellow <= 0.5\nentropy = 0.848\nsamples = 142\nvalue = [103, 0, 39]\nclass = Low", fillcolor="#efb184"] ;
114 -> 115 ;
116 [label="color_green <= 0.5\nentropy = 0.686\nsamples = 126\nvalue = [103, 0, 23]\nclass = Low", fillcolor="#eb9d65"] ;
115 -> 116 ;
117 [label="color_orange <= 0.5\nentropy = 0.458\nsamples = 114\nvalue = [103, 0, 11]\nclass = Low", fillcolor="#e88e4e"] ;
116 -> 117 ;
118 [label="entropy = 0.0\nsamples = 103\nvalue = [103, 0, 0]\nclass = Low", fillcolor="#e58139"] ;
117 -> 118 ;
119 [label="entropy = 0.0\nsamples = 11\nvalue = [0, 0, 11]\nclass = High", fillcolor="#8139e5"] ;
117 -> 119 ;
120 [label="entropy = 0.0\nsamples = 12\nvalue = [0, 0, 12]\nclass = High", fillcolor="#8139e5"] ;
116 -> 120 ;
121 [label="entropy = 0.0\nsamples = 16\nvalue = [0, 0, 16]\nclass = High", fillcolor="#8139e5"] ;
115 -> 121 ;
122 [label="entropy = 0.0\nsamples = 17\nvalue = [0, 0, 17]\nclass = High", fillcolor="#8139e5"] ;
114 -> 122 ;
123 [label="material_cotton <= 0.5\nentropy = 0.971\nsamples = 160\nvalue = [64, 0, 96]\nclass = High", fillcolor="#d5bdf6"] ;
105 -> 123 ;
124 [label="material_linen <= 0.5\nentropy = 0.735\nsamples = 121\nvalue = [25, 0, 96]\nclass = High", fillcolor="#a26dec"] ;
123 -> 124 ;
125 [label="entropy = 0.0\nsamples = 96\nvalue = [0, 0, 96]\nclass = High", fillcolor="#8139e5"] ;
124 -> 125 ;
126 [label="entropy = 0.0\nsamples = 25\nvalue = [25, 0, 0]\nclass = Low", fillcolor="#e58139"] ;
124 -> 126 ;
127 [label="entropy = 0.0\nsamples = 39\nvalue = [39, 0, 0]\nclass = Low", fillcolor="#e58139"] ;
123 -> 127 ;
128 [label="entropy = 0.0\nsamples = 134\nvalue = [0, 0, 134]\nclass = High", fillcolor="#8139e5"] ;
104 -> 128 ;
129 [label="size_S <= 0.5\nentropy = 0.79\nsamples = 464\nvalue = [0, 354, 110]\nclass = Medium", fillcolor="#77eda8"] ;
1 -> 129 ;
130 [label="size_L <= 0.5\nentropy = 0.649\nsamples = 397\nvalue = [0, 331, 66]\nclass = Medium", fillcolor="#60ea9a"] ;
129 -> 130 ;
131 [label="size_XS <= 0.5\nentropy = 0.486\nsamples = 294\nvalue = [0, 263, 31]\nclass = Medium", fillcolor="#50e890"] ;
130 -> 131 ;
132 [label="color_white <= 0.5\nentropy = 0.244\nsamples = 248\nvalue = [0, 238, 10]\nclass = Medium", fillcolor="#41e686"] ;
131 -> 132 ;
133 [label="entropy = 0.0\nsamples = 203\nvalue = [0, 203, 0]\nclass = Medium", fillcolor="#39e581"] ;
132 -> 133 ;
134 [label="size_M <= 0.5\nentropy = 0.764\nsamples = 45\nvalue = [0, 35, 10]\nclass = Medium", fillcolor="#72eca5"] ;
132 -> 134 ;
135 [label="entropy = 0.0\nsamples = 27\nvalue = [0, 27, 0]\nclass = Medium", fillcolor="#39e581"] ;
134 -> 135 ;
136 [label="entropy = 0.991\nsamples = 18\nvalue = [0, 8, 10]\nclass = High", fillcolor="#e6d7fa"] ;
134 -> 136 ;
137 [label="color_black <= 0.5\nentropy = 0.995\nsamples = 46\nvalue = [0, 25, 21]\nclass = Medium", fillcolor="#dffbeb"] ;
131 -> 137 ;
138 [label="color_white <= 0.5\nentropy = 0.971\nsamples = 35\nvalue = [0, 14, 21]\nclass = High", fillcolor="#d5bdf6"] ;
137 -> 138 ;
139 [label="color_yellow <= 0.5\nentropy = 0.764\nsamples = 27\nvalue = [0, 6, 21]\nclass = High", fillcolor="#a572ec"] ;
138 -> 139 ;
140 [label="color_green <= 0.5\nentropy = 0.439\nsamples = 22\nvalue = [0, 2, 20]\nclass = High", fillcolor="#8e4de8"] ;
139 -> 140 ;
141 [label="entropy = 0.0\nsamples = 20\nvalue = [0, 0, 20]\nclass = High", fillcolor="#8139e5"] ;
140 -> 141 ;
142 [label="entropy = 0.0\nsamples = 2\nvalue = [0, 2, 0]\nclass = Medium", fillcolor="#39e581"] ;
140 -> 142 ;
143 [label="entropy = 0.722\nsamples = 5\nvalue = [0, 4, 1]\nclass = Medium", fillcolor="#6aeca0"] ;
139 -> 143 ;
144 [label="entropy = 0.0\nsamples = 8\nvalue = [0, 8, 0]\nclass = Medium", fillcolor="#39e581"] ;
138 -> 144 ;
145 [label="entropy = 0.0\nsamples = 11\nvalue = [0, 11, 0]\nclass = Medium", fillcolor="#39e581"] ;
137 -> 145 ;
146 [label="color_black <= 0.5\nentropy = 0.925\nsamples = 103\nvalue = [0, 68, 35]\nclass = Medium", fillcolor="#9ff2c2"] ;
130 -> 146 ;
147 [label="color_white <= 0.5\nentropy = 0.722\nsamples = 85\nvalue = [0, 68, 17]\nclass = Medium", fillcolor="#6aeca0"] ;
146 -> 147 ;
148 [label="entropy = 0.0\nsamples = 68\nvalue = [0, 68, 0]\nclass = Medium", fillcolor="#39e581"] ;
147 -> 148 ;
149 [label="entropy = 0.0\nsamples = 17\nvalue = [0, 0, 17]\nclass = High", fillcolor="#8139e5"] ;
147 -> 149 ;
150 [label="entropy = 0.0\nsamples = 18\nvalue = [0, 0, 18]\nclass = High", fillcolor="#8139e5"] ;
146 -> 150 ;
151 [label="color_black <= 0.5\nentropy = 0.928\nsamples = 67\nvalue = [0, 23, 44]\nclass = High", fillcolor="#c3a0f3"] ;
129 -> 151 ;
152 [label="color_white <= 0.5\nentropy = 0.722\nsamples = 55\nvalue = [0, 11, 44]\nclass = High", fillcolor="#a06aec"] ;
151 -> 152 ;
153 [label="entropy = 0.0\nsamples = 44\nvalue = [0, 0, 44]\nclass = High", fillcolor="#8139e5"] ;
152 -> 153 ;
154 [label="entropy = 0.0\nsamples = 11\nvalue = [0, 11, 0]\nclass = Medium", fillcolor="#39e581"] ;
152 -> 154 ;
155 [label="entropy = 0.0\nsamples = 12\nvalue = [0, 12, 0]\nclass = Medium", fillcolor="#39e581"] ;
151 -> 155 ;
156 [label="color_black <= 0.5\nentropy = 1.177\nsamples = 7890\nvalue = [5360, 692, 1838]\nclass = Low", fillcolor="#f0b68c"] ;
0 -> 156 [labeldistance=2.5, labelangle=-45, headlabel="False"] ;
157 [label="color_white <= 0.5\nentropy = 0.952\nsamples = 6702\nvalue = [5282, 587, 833]\nclass = Low", fillcolor="#eb9f69"] ;
156 -> 157 ;
158 [label="material_silk <= 0.5\nentropy = 0.584\nsamples = 5379\nvalue = [4820, 240, 319]\nclass = Low", fillcolor="#e88f4f"] ;
157 -> 158 ;
159 [label="size_3XL <= 0.5\nentropy = 0.29\nsamples = 5078\nvalue = [4820, 0, 258]\nclass = Low", fillcolor="#e68844"] ;
158 -> 159 ;
160 [label="size_XXL <= 0.5\nentropy = 0.128\nsamples = 4647\nvalue = [4565, 0, 82]\nclass = Low", fillcolor="#e5833d"] ;
159 -> 160 ;
161 [label="color_green <= 0.5\nentropy = 0.035\nsamples = 4018\nvalue = [4003, 0, 15]\nclass = Low", fillcolor="#e5813a"] ;
160 -> 161 ;
162 [label="entropy = 0.0\nsamples = 3712\nvalue = [3712, 0, 0]\nclass = Low", fillcolor="#e58139"] ;
161 -> 162 ;
163 [label="material_cotton <= 0.5\nentropy = 0.282\nsamples = 306\nvalue = [291, 0, 15]\nclass = Low", fillcolor="#e68743"] ;
161 -> 163 ;
164 [label="entropy = 0.0\nsamples = 236\nvalue = [236, 0, 0]\nclass = Low", fillcolor="#e58139"] ;
163 -> 164 ;
165 [label="size_L <= 0.5\nentropy = 0.75\nsamples = 70\nvalue = [55, 0, 15]\nclass = Low", fillcolor="#eca36f"] ;
163 -> 165 ;
166 [label="size_S <= 0.5\nentropy = 0.889\nsamples = 49\nvalue = [34, 0, 15]\nclass = Low", fillcolor="#f0b990"] ;
165 -> 166 ;
167 [label="size_XS <= 0.5\nentropy = 0.968\nsamples = 38\nvalue = [23, 0, 15]\nclass = Low", fillcolor="#f6d3ba"] ;
166 -> 167 ;
168 [label="size_M <= 0.5\nentropy = 1.0\nsamples = 30\nvalue = [15, 0, 15]\nclass = Low", fillcolor="#ffffff"] ;
167 -> 168 ;
169 [label="entropy = 0.997\nsamples = 15\nvalue = [7, 0, 8]\nclass = High", fillcolor="#efe6fc"] ;
168 -> 169 ;
170 [label="entropy = 0.997\nsamples = 15\nvalue = [8, 0, 7]\nclass = Low", fillcolor="#fcefe6"] ;
168 -> 170 ;
171 [label="entropy = 0.0\nsamples = 8\nvalue = [8, 0, 0]\nclass = Low", fillcolor="#e58139"] ;
167 -> 171 ;
172 [label="entropy = 0.0\nsamples = 11\nvalue = [11, 0, 0]\nclass = Low", fillcolor="#e58139"] ;
166 -> 172 ;
173 [label="entropy = 0.0\nsamples = 21\nvalue = [21, 0, 0]\nclass = Low", fillcolor="#e58139"] ;
165 -> 173 ;
174 [label="material_cotton <= 0.5\nentropy = 0.489\nsamples = 629\nvalue = [562, 0, 67]\nclass = Low", fillcolor="#e89051"] ;
160 -> 174 ;
175 [label="color_green <= 0.5\nentropy = 0.179\nsamples = 482\nvalue = [469, 0, 13]\nclass = Low", fillcolor="#e6843e"] ;
174 -> 175 ;
176 [label="entropy = 0.0\nsamples = 444\nvalue = [444, 0, 0]\nclass = Low", fillcolor="#e58139"] ;
175 -> 176 ;
177 [label="material_linen <= 0.5\nentropy = 0.927\nsamples = 38\nvalue = [25, 0, 13]\nclass = Low", fillcolor="#f3c3a0"] ;
175 -> 177 ;
178 [label="material_nylon <= 0.5\nentropy = 0.999\nsamples = 27\nvalue = [14, 0, 13]\nclass = Low", fillcolor="#fdf6f1"] ;
177 -> 178 ;
179 [label="entropy = 0.971\nsamples = 15\nvalue = [9, 0, 6]\nclass = Low", fillcolor="#f6d5bd"] ;
178 -> 179 ;
180 [label="entropy = 0.98\nsamples = 12\nvalue = [5, 0, 7]\nclass = High", fillcolor="#dbc6f8"] ;
178 -> 180 ;
181 [label="entropy = 0.0\nsamples = 11\nvalue = [11, 0, 0]\nclass = Low", fillcolor="#e58139"] ;
177 -> 181 ;
182 [label="color_violet <= 0.5\nentropy = 0.949\nsamples = 147\nvalue = [93, 0, 54]\nclass = Low", fillcolor="#f4caac"] ;
174 -> 182 ;
183 [label="color_yellow <= 0.5\nentropy = 0.854\nsamples = 129\nvalue = [93, 0, 36]\nclass = Low", fillcolor="#efb286"] ;
182 -> 183 ;
184 [label="color_orange <= 0.5\nentropy = 0.718\nsamples = 116\nvalue = [93, 0, 23]\nclass = Low", fillcolor="#eba06a"] ;
183 -> 184 ;
185 [label="color_green <= 0.5\nentropy = 0.487\nsamples = 104\nvalue = [93, 0, 11]\nclass = Low", fillcolor="#e89050"] ;
184 -> 185 ;
186 [label="entropy = 0.0\nsamples = 93\nvalue = [93, 0, 0]\nclass = Low", fillcolor="#e58139"] ;
185 -> 186 ;
187 [label="entropy = 0.0\nsamples = 11\nvalue = [0, 0, 11]\nclass = High", fillcolor="#8139e5"] ;
185 -> 187 ;
188 [label="entropy = 0.0\nsamples = 12\nvalue = [0, 0, 12]\nclass = High", fillcolor="#8139e5"] ;
184 -> 188 ;
189 [label="entropy = 0.0\nsamples = 13\nvalue = [0, 0, 13]\nclass = High", fillcolor="#8139e5"] ;
183 -> 189 ;
190 [label="entropy = 0.0\nsamples = 18\nvalue = [0, 0, 18]\nclass = High", fillcolor="#8139e5"] ;
182 -> 190 ;
191 [label="material_cotton <= 0.5\nentropy = 0.976\nsamples = 431\nvalue = [255, 0, 176]\nclass = Low", fillcolor="#f7d8c2"] ;
159 -> 191 ;
192 [label="material_linen <= 0.5\nentropy = 0.863\nsamples = 336\nvalue = [240, 0, 96]\nclass = Low", fillcolor="#efb388"] ;
191 -> 192 ;
193 [label="color_yellow <= 0.5\nentropy = 0.954\nsamples = 256\nvalue = [160, 0, 96]\nclass = Low", fillcolor="#f5cdb0"] ;
192 -> 193 ;
194 [label="color_orange <= 0.5\nentropy = 0.879\nsamples = 228\nvalue = [160, 0, 68]\nclass = Low", fillcolor="#f0b78d"] ;
193 -> 194 ;
195 [label="color_violet <= 0.5\nentropy = 0.722\nsamples = 200\nvalue = [160, 0, 40]\nclass = Low", fillcolor="#eca06a"] ;
194 -> 195 ;
196 [label="color_green <= 0.5\nentropy = 0.488\nsamples = 179\nvalue = [160, 0, 19]\nclass = Low", fillcolor="#e89051"] ;
195 -> 196 ;
197 [label="entropy = 0.0\nsamples = 160\nvalue = [160, 0, 0]\nclass = Low", fillcolor="#e58139"] ;
196 -> 197 ;
198 [label="entropy = 0.0\nsamples = 19\nvalue = [0, 0, 19]\nclass = High", fillcolor="#8139e5"] ;
196 -> 198 ;
199 [label="entropy = 0.0\nsamples = 21\nvalue = [0, 0, 21]\nclass = High", fillcolor="#8139e5"] ;
195 -> 199 ;
200 [label="entropy = 0.0\nsamples = 28\nvalue = [0, 0, 28]\nclass = High", fillcolor="#8139e5"] ;
194 -> 200 ;
201 [label="entropy = 0.0\nsamples = 28\nvalue = [0, 0, 28]\nclass = High", fillcolor="#8139e5"] ;
193 -> 201 ;
202 [label="entropy = 0.0\nsamples = 80\nvalue = [80, 0, 0]\nclass = Low", fillcolor="#e58139"] ;
192 -> 202 ;
203 [label="color_navy <= 0.5\nentropy = 0.629\nsamples = 95\nvalue = [15, 0, 80]\nclass = High", fillcolor="#995eea"] ;
191 -> 203 ;
204 [label="color_cream <= 0.5\nentropy = 0.432\nsamples = 79\nvalue = [7, 0, 72]\nclass = High", fillcolor="#8d4ce8"] ;
203 -> 204 ;
205 [label="entropy = 0.0\nsamples = 62\nvalue = [0, 0, 62]\nclass = High", fillcolor="#8139e5"] ;
204 -> 205 ;
206 [label="entropy = 0.977\nsamples = 17\nvalue = [7, 0, 10]\nclass = High", fillcolor="#d9c4f7"] ;
204 -> 206 ;
207 [label="entropy = 1.0\nsamples = 16\nvalue = [8, 0, 8]\nclass = Low", fillcolor="#ffffff"] ;
203 -> 207 ;
208 [label="size_S <= 0.5\nentropy = 0.727\nsamples = 301\nvalue = [0, 240, 61]\nclass = Medium", fillcolor="#6beca1"] ;
158 -> 208 ;
209 [label="size_XS <= 0.5\nentropy = 0.428\nsamples = 263\nvalue = [0, 240, 23]\nclass = Medium", fillcolor="#4ce78d"] ;
208 -> 209 ;
210 [label="entropy = 0.0\nsamples = 233\nvalue = [0, 233, 0]\nclass = Medium", fillcolor="#39e581"] ;
209 -> 210 ;
211 [label="color_orange <= 0.5\nentropy = 0.784\nsamples = 30\nvalue = [0, 7, 23]\nclass = High", fillcolor="#a775ed"] ;
209 -> 211 ;
212 [label="color_violet <= 0.5\nentropy = 0.619\nsamples = 26\nvalue = [0, 4, 22]\nclass = High", fillcolor="#985dea"] ;
211 -> 212 ;
213 [label="color_navy <= 0.5\nentropy = 0.439\nsamples = 22\nvalue = [0, 2, 20]\nclass = High", fillcolor="#8e4de8"] ;
212 -> 213 ;
214 [label="color_blue <= 0.5\nentropy = 0.567\nsamples = 15\nvalue = [0, 2, 13]\nclass = High", fillcolor="#9457e9"] ;
213 -> 214 ;
215 [label="color_cream <= 0.5\nentropy = 0.722\nsamples = 10\nvalue = [0, 2, 8]\nclass = High", fillcolor="#a06aec"] ;
214 -> 215 ;
216 [label="color_red <= 0.5\nentropy = 0.918\nsamples = 6\nvalue = [0, 2, 4]\nclass = High", fillcolor="#c09cf2"] ;
215 -> 216 ;
217 [label="entropy = 0.0\nsamples = 2\nvalue = [0, 2, 0]\nclass = Medium", fillcolor="#39e581"] ;
216 -> 217 ;
218 [label="entropy = 0.0\nsamples = 4\nvalue = [0, 0, 4]\nclass = High", fillcolor="#8139e5"] ;
216 -> 218 ;
219 [label="entropy = 0.0\nsamples = 4\nvalue = [0, 0, 4]\nclass = High", fillcolor="#8139e5"] ;
215 -> 219 ;
220 [label="entropy = 0.0\nsamples = 5\nvalue = [0, 0, 5]\nclass = High", fillcolor="#8139e5"] ;
214 -> 220 ;
221 [label="entropy = 0.0\nsamples = 7\nvalue = [0, 0, 7]\nclass = High", fillcolor="#8139e5"] ;
213 -> 221 ;
222 [label="entropy = 1.0\nsamples = 4\nvalue = [0, 2, 2]\nclass = Medium", fillcolor="#ffffff"] ;
212 -> 222 ;
223 [label="entropy = 0.811\nsamples = 4\nvalue = [0, 3, 1]\nclass = Medium", fillcolor="#7beeab"] ;
211 -> 223 ;
224 [label="entropy = 0.0\nsamples = 38\nvalue = [0, 0, 38]\nclass = High", fillcolor="#8139e5"] ;
208 -> 224 ;
225 [label="size_L <= 0.5\nentropy = 1.566\nsamples = 1323\nvalue = [462, 347, 514]\nclass = High", fillcolor="#f7f3fd"] ;
157 -> 225 ;
226 [label="material_cotton <= 0.5\nentropy = 1.479\nsamples = 1039\nvalue = [192, 333, 514]\nclass = High", fillcolor="#dfccf8"] ;
225 -> 226 ;
227 [label="material_linen <= 0.5\nentropy = 1.378\nsamples = 810\nvalue = [86, 333, 391]\nclass = High", fillcolor="#f0e7fc"] ;
226 -> 227 ;
228 [label="size_XL <= 0.5\nentropy = 1.0\nsamples = 638\nvalue = [0, 321, 317]\nclass = Medium", fillcolor="#fdfffd"] ;
227 -> 228 ;
229 [label="size_XXL <= 0.5\nentropy = 0.953\nsamples = 506\nvalue = [0, 189, 317]\nclass = High", fillcolor="#ccaff5"] ;
228 -> 229 ;
230 [label="size_3XL <= 0.5\nentropy = 0.737\nsamples = 400\nvalue = [0, 83, 317]\nclass = High", fillcolor="#a26dec"] ;
229 -> 230 ;
231 [label="material_silk <= 0.5\nentropy = 0.387\nsamples = 343\nvalue = [0, 26, 317]\nclass = High", fillcolor="#8b49e7"] ;
230 -> 231 ;
232 [label="entropy = 0.0\nsamples = 317\nvalue = [0, 0, 317]\nclass = High", fillcolor="#8139e5"] ;
231 -> 232 ;
233 [label="entropy = 0.0\nsamples = 26\nvalue = [0, 26, 0]\nclass = Medium", fillcolor="#39e581"] ;
231 -> 233 ;
234 [label="entropy = 0.0\nsamples = 57\nvalue = [0, 57, 0]\nclass = Medium", fillcolor="#39e581"] ;
230 -> 234 ;
235 [label="entropy = 0.0\nsamples = 106\nvalue = [0, 106, 0]\nclass = Medium", fillcolor="#39e581"] ;
229 -> 235 ;
236 [label="entropy = 0.0\nsamples = 132\nvalue = [0, 132, 0]\nclass = Medium", fillcolor="#39e581"] ;
228 -> 236 ;
237 [label="size_XL <= 0.5\nentropy = 1.292\nsamples = 172\nvalue = [86, 12, 74]\nclass = Low", fillcolor="#fcf0e7"] ;
227 -> 237 ;
238 [label="size_XXL <= 0.5\nentropy = 1.241\nsamples = 136\nvalue = [86, 12, 38]\nclass = Low", fillcolor="#f2c19e"] ;
237 -> 238 ;
239 [label="size_3XL <= 0.5\nentropy = 0.932\nsamples = 108\nvalue = [86, 12, 10]\nclass = Low", fillcolor="#eb9e66"] ;
238 -> 239 ;
240 [label="entropy = 0.0\nsamples = 86\nvalue = [86, 0, 0]\nclass = Low", fillcolor="#e58139"] ;
239 -> 240 ;
241 [label="entropy = 0.994\nsamples = 22\nvalue = [0, 12, 10]\nclass = Medium", fillcolor="#defbea"] ;
239 -> 241 ;
242 [label="entropy = 0.0\nsamples = 28\nvalue = [0, 0, 28]\nclass = High", fillcolor="#8139e5"] ;
238 -> 242 ;
243 [label="entropy = 0.0\nsamples = 36\nvalue = [0, 0, 36]\nclass = High", fillcolor="#8139e5"] ;
237 -> 243 ;
244 [label="size_XL <= 0.5\nentropy = 0.996\nsamples = 229\nvalue = [106, 0, 123]\nclass = High", fillcolor="#eee4fb"] ;
226 -> 244 ;
245 [label="size_XXL <= 0.5\nentropy = 0.961\nsamples = 172\nvalue = [106, 0, 66]\nclass = Low", fillcolor="#f5cfb4"] ;
244 -> 245 ;
246 [label="size_3XL <= 0.5\nentropy = 0.781\nsamples = 138\nvalue = [106, 0, 32]\nclass = Low", fillcolor="#eda775"] ;
245 -> 246 ;
247 [label="entropy = 0.0\nsamples = 106\nvalue = [106, 0, 0]\nclass = Low", fillcolor="#e58139"] ;
246 -> 247 ;
248 [label="entropy = 0.0\nsamples = 32\nvalue = [0, 0, 32]\nclass = High", fillcolor="#8139e5"] ;
246 -> 248 ;
249 [label="entropy = 0.0\nsamples = 34\nvalue = [0, 0, 34]\nclass = High", fillcolor="#8139e5"] ;
245 -> 249 ;
250 [label="entropy = 0.0\nsamples = 57\nvalue = [0, 0, 57]\nclass = High", fillcolor="#8139e5"] ;
244 -> 250 ;
251 [label="material_silk <= 0.5\nentropy = 0.283\nsamples = 284\nvalue = [270, 14, 0]\nclass = Low", fillcolor="#e68843"] ;
225 -> 251 ;
252 [label="entropy = 0.0\nsamples = 270\nvalue = [270, 0, 0]\nclass = Low", fillcolor="#e58139"] ;
251 -> 252 ;
253 [label="entropy = 0.0\nsamples = 14\nvalue = [0, 14, 0]\nclass = Medium", fillcolor="#39e581"] ;
251 -> 253 ;
254 [label="material_silk <= 0.5\nentropy = 0.771\nsamples = 1188\nvalue = [78, 105, 1005]\nclass = High", fillcolor="#965ae9"] ;
156 -> 254 ;
255 [label="size_L <= 0.5\nentropy = 0.546\nsamples = 1114\nvalue = [78, 31, 1005]\nclass = High", fillcolor="#8e4ee8"] ;
254 -> 255 ;
256 [label="material_linen <= 0.5\nentropy = 0.222\nsamples = 869\nvalue = [0, 31, 838]\nclass = High", fillcolor="#8640e6"] ;
255 -> 256 ;
257 [label="entropy = 0.0\nsamples = 718\nvalue = [0, 0, 718]\nclass = High", fillcolor="#8139e5"] ;
256 -> 257 ;
258 [label="size_3XL <= 0.5\nentropy = 0.732\nsamples = 151\nvalue = [0, 31, 120]\nclass = High", fillcolor="#a26cec"] ;
256 -> 258 ;
259 [label="size_XS <= 0.5\nentropy = 0.483\nsamples = 134\nvalue = [0, 14, 120]\nclass = High", fillcolor="#9050e8"] ;
258 -> 259 ;
260 [label="entropy = 0.0\nsamples = 120\nvalue = [0, 0, 120]\nclass = High", fillcolor="#8139e5"] ;
259 -> 260 ;
261 [label="entropy = 0.0\nsamples = 14\nvalue = [0, 14, 0]\nclass = Medium", fillcolor="#39e581"] ;
259 -> 261 ;
262 [label="entropy = 0.0\nsamples = 17\nvalue = [0, 17, 0]\nclass = Medium", fillcolor="#39e581"] ;
258 -> 262 ;
263 [label="material_cotton <= 0.5\nentropy = 0.903\nsamples = 245\nvalue = [78, 0, 167]\nclass = High", fillcolor="#bc95f1"] ;
255 -> 263 ;
264 [label="material_linen <= 0.5\nentropy = 0.991\nsamples = 176\nvalue = [78, 0, 98]\nclass = High", fillcolor="#e5d7fa"] ;
263 -> 264 ;
265 [label="material_nylon <= 0.5\nentropy = 0.993\nsamples = 142\nvalue = [78, 0, 64]\nclass = Low", fillcolor="#fae8db"] ;
264 -> 265 ;
266 [label="entropy = 0.991\nsamples = 72\nvalue = [40, 0, 32]\nclass = Low", fillcolor="#fae6d7"] ;
265 -> 266 ;
267 [label="entropy = 0.995\nsamples = 70\nvalue = [38, 0, 32]\nclass = Low", fillcolor="#fbebe0"] ;
265 -> 267 ;
268 [label="entropy = 0.0\nsamples = 34\nvalue = [0, 0, 34]\nclass = High", fillcolor="#8139e5"] ;
264 -> 268 ;
269 [label="entropy = 0.0\nsamples = 69\nvalue = [0, 0, 69]\nclass = High", fillcolor="#8139e5"] ;
263 -> 269 ;
270 [label="entropy = 0.0\nsamples = 74\nvalue = [0, 74, 0]\nclass = Medium", fillcolor="#39e581"] ;
254 -> 270 ;
}