digraph Tree {
node [shape=box, style="filled", color="black", fontname="helvetica"] ;
edge [fontname="helvetica"] ;
0 [label="color_black <= 0.5\ngini = 0.596\nsamples = 16000\nvalue = [7196, 1873, 6931]\nclass = Low", fillcolor="#fefbf9"] ;
1 [label="size_XS <= 0.5\ngini = 0.587\nsamples = 13540\nvalue = [7044, 1659, 4837]\nclass = Low", fillcolor="#f8dfcd"] ;
0 -> 1 [labeldistance=2.5, labelangle=45, headlabel="True"] ;
2 [label="sleeves_long <= 0.5\ngini = 0.596\nsamples = 12360\nvalue = [6249, 1631, 4480]\nclass = Low", fillcolor="#f9e3d3"] ;
1 -> 2 ;
3 [label="color_white <= 0.5\ngini = 0.361\nsamples = 6113\nvalue = [4796, 573, 744]\nclass = Low", fillcolor="#eba06a"] ;
2 -> 3 ;
4 [label="color_violet <= 0.5\ngini = 0.198\nsamples = 4902\nvalue = [4373, 233, 296]\nclass = Low", fillcolor="#e88f50"] ;
3 -> 4 ;
5 [label="size_XXL <= 0.5\ngini = 0.191\nsamples = 4445\nvalue = [3984, 213, 248]\nclass = Low", fillcolor="#e88f4f"] ;
4 -> 5 ;
6 [label="size_3XL <= 0.5\ngini = 0.179\nsamples = 3854\nvalue = [3483, 172, 199]\nclass = Low", fillcolor="#e88e4d"] ;
5 -> 6 ;
7 [label="color_green <= 0.5\ngini = 0.113\nsamples = 3442\nvalue = [3238, 154, 50]\nclass = Low", fillcolor="#e78945"] ;
6 -> 7 ;
8 [label="material_linen <= 0.5\ngini = 0.105\nsamples = 3154\nvalue = [2981, 140, 33]\nclass = Low", fillcolor="#e68844"] ;
7 -> 8 ;
9 [label="material_nylon <= 0.5\ngini = 0.126\nsamples = 2596\nvalue = [2423, 140, 33]\nclass = Low", fillcolor="#e78a47"] ;
8 -> 9 ;
10 [label="material_silk <= 0.5\ngini = 0.185\nsamples = 1715\nvalue = [1542, 140, 33]\nclass = Low", fillcolor="#e88f4f"] ;
9 -> 10 ;
11 [label="gini = 0.0\nsamples = 1542\nvalue = [1542, 0, 0]\nclass = Low", fillcolor="#e58139"] ;
10 -> 11 ;
12 [label="color_blue <= 0.5\ngini = 0.309\nsamples = 173\nvalue = [0, 140, 33]\nclass = Medium", fillcolor="#68eb9f"] ;
10 -> 12 ;
13 [label="color_orange <= 0.5\ngini = 0.279\nsamples = 143\nvalue = [0, 119, 24]\nclass = Medium", fillcolor="#61ea9a"] ;
12 -> 13 ;
14 [label="size_S <= 0.5\ngini = 0.259\nsamples = 124\nvalue = [0, 105, 19]\nclass = Medium", fillcolor="#5dea98"] ;
13 -> 14 ;
15 [label="gini = 0.0\nsamples = 105\nvalue = [0, 105, 0]\nclass = Medium", fillcolor="#39e581"] ;
14 -> 15 ;
16 [label="gini = 0.0\nsamples = 19\nvalue = [0, 0, 19]\nclass = High", fillcolor="#8139e5"] ;
14 -> 16 ;
17 [label="size_S <= 0.5\ngini = 0.388\nsamples = 19\nvalue = [0, 14, 5]\nclass = Medium", fillcolor="#80eeae"] ;
13 -> 17 ;
18 [label="gini = 0.0\nsamples = 14\nvalue = [0, 14, 0]\nclass = Medium", fillcolor="#39e581"] ;
17 -> 18 ;
19 [label="gini = 0.0\nsamples = 5\nvalue = [0, 0, 5]\nclass = High", fillcolor="#8139e5"] ;
17 -> 19 ;
20 [label="size_XL <= 0.5\ngini = 0.42\nsamples = 30\nvalue = [0, 21, 9]\nclass = Medium", fillcolor="#8ef0b7"] ;
12 -> 20 ;
21 [label="size_S <= 0.5\ngini = 0.476\nsamples = 23\nvalue = [0, 14, 9]\nclass = Medium", fillcolor="#b8f6d2"] ;
20 -> 21 ;
22 [label="gini = 0.0\nsamples = 14\nvalue = [0, 14, 0]\nclass = Medium", fillcolor="#39e581"] ;
21 -> 22 ;
23 [label="gini = 0.0\nsamples = 9\nvalue = [0, 0, 9]\nclass = High", fillcolor="#8139e5"] ;
21 -> 23 ;
24 [label="gini = 0.0\nsamples = 7\nvalue = [0, 7, 0]\nclass = Medium", fillcolor="#39e581"] ;
20 -> 24 ;
25 [label="gini = 0.0\nsamples = 881\nvalue = [881, 0, 0]\nclass = Low", fillcolor="#e58139"] ;
9 -> 25 ;
26 [label="gini = 0.0\nsamples = 558\nvalue = [558, 0, 0]\nclass = Low", fillcolor="#e58139"] ;
8 -> 26 ;
27 [label="material_cotton <= 0.5\ngini = 0.198\nsamples = 288\nvalue = [257, 14, 17]\nclass = Low", fillcolor="#e88f50"] ;
7 -> 27 ;
28 [label="size_S <= 0.5\ngini = 0.133\nsamples = 226\nvalue = [210, 14, 2]\nclass = Low", fillcolor="#e78b48"] ;
27 -> 28 ;
29 [label="material_silk <= 0.5\ngini = 0.137\nsamples = 190\nvalue = [176, 14, 0]\nclass = Low", fillcolor="#e78b49"] ;
28 -> 29 ;
30 [label="gini = 0.0\nsamples = 176\nvalue = [176, 0, 0]\nclass = Low", fillcolor="#e58139"] ;
29 -> 30 ;
31 [label="gini = 0.0\nsamples = 14\nvalue = [0, 14, 0]\nclass = Medium", fillcolor="#39e581"] ;
29 -> 31 ;
32 [label="material_nylon <= 0.5\ngini = 0.105\nsamples = 36\nvalue = [34, 0, 2]\nclass = Low", fillcolor="#e78845"] ;
28 -> 32 ;
33 [label="material_linen <= 0.5\ngini = 0.165\nsamples = 22\nvalue = [20, 0, 2]\nclass = Low", fillcolor="#e88e4d"] ;
32 -> 33 ;
34 [label="material_silk <= 0.5\ngini = 0.245\nsamples = 14\nvalue = [12, 0, 2]\nclass = Low", fillcolor="#e9965a"] ;
33 -> 34 ;
35 [label="gini = 0.0\nsamples = 12\nvalue = [12, 0, 0]\nclass = Low", fillcolor="#e58139"] ;
34 -> 35 ;
36 [label="gini = 0.0\nsamples = 2\nvalue = [0, 0, 2]\nclass = High", fillcolor="#8139e5"] ;
34 -> 36 ;
37 [label="gini = 0.0\nsamples = 8\nvalue = [8, 0, 0]\nclass = Low", fillcolor="#e58139"] ;
33 -> 37 ;
38 [label="gini = 0.0\nsamples = 14\nvalue = [14, 0, 0]\nclass = Low", fillcolor="#e58139"] ;
32 -> 38 ;
39 [label="size_M <= 0.5\ngini = 0.367\nsamples = 62\nvalue = [47, 0, 15]\nclass = Low", fillcolor="#eda978"] ;
27 -> 39 ;
40 [label="size_XL <= 0.5\ngini = 0.282\nsamples = 47\nvalue = [39, 0, 8]\nclass = Low", fillcolor="#ea9b62"] ;
39 -> 40 ;
41 [label="gini = 0.0\nsamples = 32\nvalue = [32, 0, 0]\nclass = Low", fillcolor="#e58139"] ;
40 -> 41 ;
42 [label="gini = 0.498\nsamples = 15\nvalue = [7, 0, 8]\nclass = High", fillcolor="#efe6fc"] ;
40 -> 42 ;
43 [label="gini = 0.498\nsamples = 15\nvalue = [8, 0, 7]\nclass = Low", fillcolor="#fcefe6"] ;
39 -> 43 ;
44 [label="material_cotton <= 0.5\ngini = 0.514\nsamples = 412\nvalue = [245, 18, 149]\nclass = Low", fillcolor="#f6d1b7"] ;
6 -> 44 ;
45 [label="material_silk <= 0.5\ngini = 0.436\nsamples = 323\nvalue = [230, 18, 75]\nclass = Low", fillcolor="#efb083"] ;
44 -> 45 ;
46 [label="material_linen <= 0.5\ngini = 0.371\nsamples = 305\nvalue = [230, 0, 75]\nclass = Low", fillcolor="#edaa7a"] ;
45 -> 46 ;
47 [label="color_yellow <= 0.5\ngini = 0.435\nsamples = 235\nvalue = [160, 0, 75]\nclass = Low", fillcolor="#f1bc96"] ;
46 -> 47 ;
48 [label="color_green <= 0.5\ngini = 0.351\nsamples = 207\nvalue = [160, 0, 47]\nclass = Low", fillcolor="#eda673"] ;
47 -> 48 ;
49 [label="color_orange <= 0.5\ngini = 0.254\nsamples = 188\nvalue = [160, 0, 28]\nclass = Low", fillcolor="#ea975c"] ;
48 -> 49 ;
50 [label="gini = 0.0\nsamples = 160\nvalue = [160, 0, 0]\nclass = Low", fillcolor="#e58139"] ;
49 -> 50 ;
51 [label="gini = 0.0\nsamples = 28\nvalue = [0, 0, 28]\nclass = High", fillcolor="#8139e5"] ;
49 -> 51 ;
52 [label="gini = 0.0\nsamples = 19\nvalue = [0, 0, 19]\nclass = High", fillcolor="#8139e5"] ;
48 -> 52 ;
53 [label="gini = 0.0\nsamples = 28\nvalue = [0, 0, 28]\nclass = High", fillcolor="#8139e5"] ;
47 -> 53 ;
54 [label="gini = 0.0\nsamples = 70\nvalue = [70, 0, 0]\nclass = Low", fillcolor="#e58139"] ;
46 -> 54 ;
55 [label="gini = 0.0\nsamples = 18\nvalue = [0, 18, 0]\nclass = Medium", fillcolor="#39e581"] ;
45 -> 55 ;
56 [label="color_yellow <= 0.5\ngini = 0.28\nsamples = 89\nvalue = [15, 0, 74]\nclass = High", fillcolor="#9b61ea"] ;
44 -> 56 ;
57 [label="color_green <= 0.5\ngini = 0.308\nsamples = 79\nvalue = [15, 0, 64]\nclass = High", fillcolor="#9f67eb"] ;
56 -> 57 ;
58 [label="color_navy <= 0.5\ngini = 0.34\nsamples = 69\nvalue = [15, 0, 54]\nclass = High", fillcolor="#a470ec"] ;
57 -> 58 ;
59 [label="color_blue <= 0.5\ngini = 0.229\nsamples = 53\nvalue = [7, 0, 46]\nclass = High", fillcolor="#9457e9"] ;
58 -> 59 ;
60 [label="color_orange <= 0.5\ngini = 0.295\nsamples = 39\nvalue = [7, 0, 32]\nclass = High", fillcolor="#9d64eb"] ;
59 -> 60 ;
61 [label="color_red <= 0.5\ngini = 0.35\nsamples = 31\nvalue = [7, 0, 24]\nclass = High", fillcolor="#a673ed"] ;
60 -> 61 ;
62 [label="gini = 0.484\nsamples = 17\nvalue = [7, 0, 10]\nclass = High", fillcolor="#d9c4f7"] ;
61 -> 62 ;
63 [label="gini = 0.0\nsamples = 14\nvalue = [0, 0, 14]\nclass = High", fillcolor="#8139e5"] ;
61 -> 63 ;
64 [label="gini = 0.0\nsamples = 8\nvalue = [0, 0, 8]\nclass = High", fillcolor="#8139e5"] ;
60 -> 64 ;
65 [label="gini = 0.0\nsamples = 14\nvalue = [0, 0, 14]\nclass = High", fillcolor="#8139e5"] ;
59 -> 65 ;
66 [label="gini = 0.5\nsamples = 16\nvalue = [8, 0, 8]\nclass = Low", fillcolor="#ffffff"] ;
58 -> 66 ;
67 [label="gini = 0.0\nsamples = 10\nvalue = [0, 0, 10]\nclass = High", fillcolor="#8139e5"] ;
57 -> 67 ;
68 [label="gini = 0.0\nsamples = 10\nvalue = [0, 0, 10]\nclass = High", fillcolor="#8139e5"] ;
56 -> 68 ;
69 [label="material_linen <= 0.5\ngini = 0.27\nsamples = 591\nvalue = [501, 41, 49]\nclass = Low", fillcolor="#e9965a"] ;
5 -> 69 ;
70 [label="color_yellow <= 0.5\ngini = 0.322\nsamples = 481\nvalue = [391, 41, 49]\nclass = Low", fillcolor="#ea9b62"] ;
69 -> 70 ;
71 [label="material_polyester <= 0.5\ngini = 0.291\nsamples = 427\nvalue = [356, 35, 36]\nclass = Low", fillcolor="#ea985d"] ;
70 -> 71 ;
72 [label="color_green <= 0.5\ngini = 0.373\nsamples = 290\nvalue = [225, 35, 30]\nclass = Low", fillcolor="#eca16b"] ;
71 -> 72 ;
73 [label="color_blue <= 0.5\ngini = 0.293\nsamples = 265\nvalue = [220, 33, 12]\nclass = Low", fillcolor="#ea995f"] ;
72 -> 73 ;
74 [label="material_nylon <= 0.5\ngini = 0.324\nsamples = 220\nvalue = [178, 30, 12]\nclass = Low", fillcolor="#eb9d65"] ;
73 -> 74 ;
75 [label="color_cream <= 0.5\ngini = 0.515\nsamples = 116\nvalue = [74, 30, 12]\nclass = Low", fillcolor="#f2bf9a"] ;
74 -> 75 ;
76 [label="material_cotton <= 0.5\ngini = 0.553\nsamples = 76\nvalue = [46, 18, 12]\nclass = Low", fillcolor="#f2c29f"] ;
75 -> 76 ;
77 [label="gini = 0.0\nsamples = 18\nvalue = [0, 18, 0]\nclass = Medium", fillcolor="#39e581"] ;
76 -> 77 ;
78 [label="color_navy <= 0.5\ngini = 0.328\nsamples = 58\nvalue = [46, 0, 12]\nclass = Low", fillcolor="#eca26d"] ;
76 -> 78 ;
79 [label="color_orange <= 0.5\ngini = 0.444\nsamples = 36\nvalue = [24, 0, 12]\nclass = Low", fillcolor="#f2c09c"] ;
78 -> 79 ;
80 [label="gini = 0.0\nsamples = 24\nvalue = [24, 0, 0]\nclass = Low", fillcolor="#e58139"] ;
79 -> 80 ;
81 [label="gini = 0.0\nsamples = 12\nvalue = [0, 0, 12]\nclass = High", fillcolor="#8139e5"] ;
79 -> 81 ;
82 [label="gini = 0.0\nsamples = 22\nvalue = [22, 0, 0]\nclass = Low", fillcolor="#e58139"] ;
78 -> 82 ;
83 [label="material_silk <= 0.5\ngini = 0.42\nsamples = 40\nvalue = [28, 12, 0]\nclass = Low", fillcolor="#f0b78e"] ;
75 -> 83 ;
84 [label="gini = 0.0\nsamples = 28\nvalue = [28, 0, 0]\nclass = Low", fillcolor="#e58139"] ;
83 -> 84 ;
85 [label="gini = 0.0\nsamples = 12\nvalue = [0, 12, 0]\nclass = Medium", fillcolor="#39e581"] ;
83 -> 85 ;
86 [label="gini = 0.0\nsamples = 104\nvalue = [104, 0, 0]\nclass = Low", fillcolor="#e58139"] ;
74 -> 86 ;
87 [label="material_silk <= 0.5\ngini = 0.124\nsamples = 45\nvalue = [42, 3, 0]\nclass = Low", fillcolor="#e78a47"] ;
73 -> 87 ;
88 [label="gini = 0.0\nsamples = 42\nvalue = [42, 0, 0]\nclass = Low", fillcolor="#e58139"] ;
87 -> 88 ;
89 [label="gini = 0.0\nsamples = 3\nvalue = [0, 3, 0]\nclass = Medium", fillcolor="#39e581"] ;
87 -> 89 ;
90 [label="material_cotton <= 0.5\ngini = 0.435\nsamples = 25\nvalue = [5, 2, 18]\nclass = High", fillcolor="#ad7eee"] ;
72 -> 90 ;
91 [label="material_silk <= 0.5\ngini = 0.602\nsamples = 14\nvalue = [5, 2, 7]\nclass = High", fillcolor="#e3d3f9"] ;
90 -> 91 ;
92 [label="gini = 0.486\nsamples = 12\nvalue = [5, 0, 7]\nclass = High", fillcolor="#dbc6f8"] ;
91 -> 92 ;
93 [label="gini = 0.0\nsamples = 2\nvalue = [0, 2, 0]\nclass = Medium", fillcolor="#39e581"] ;
91 -> 93 ;
94 [label="gini = 0.0\nsamples = 11\nvalue = [0, 0, 11]\nclass = High", fillcolor="#8139e5"] ;
90 -> 94 ;
95 [label="color_blue <= 0.5\ngini = 0.084\nsamples = 137\nvalue = [131, 0, 6]\nclass = Low", fillcolor="#e68742"] ;
71 -> 95 ;
96 [label="color_orange <= 0.5\ngini = 0.097\nsamples = 117\nvalue = [111, 0, 6]\nclass = Low", fillcolor="#e68844"] ;
95 -> 96 ;
97 [label="color_navy <= 0.5\ngini = 0.112\nsamples = 101\nvalue = [95, 0, 6]\nclass = Low", fillcolor="#e78946"] ;
96 -> 97 ;
98 [label="color_cream <= 0.5\ngini = 0.155\nsamples = 71\nvalue = [65, 0, 6]\nclass = Low", fillcolor="#e78d4b"] ;
97 -> 98 ;
99 [label="color_red <= 0.5\ngini = 0.24\nsamples = 43\nvalue = [37, 0, 6]\nclass = Low", fillcolor="#e99559"] ;
98 -> 99 ;
100 [label="gini = 0.48\nsamples = 15\nvalue = [9, 0, 6]\nclass = Low", fillcolor="#f6d5bd"] ;
99 -> 100 ;
101 [label="gini = 0.0\nsamples = 28\nvalue = [28, 0, 0]\nclass = Low", fillcolor="#e58139"] ;
99 -> 101 ;
102 [label="gini = 0.0\nsamples = 28\nvalue = [28, 0, 0]\nclass = Low", fillcolor="#e58139"] ;
98 -> 102 ;
103 [label="gini = 0.0\nsamples = 30\nvalue = [30, 0, 0]\nclass = Low", fillcolor="#e58139"] ;
97 -> 103 ;
104 [label="gini = 0.0\nsamples = 16\nvalue = [16, 0, 0]\nclass = Low", fillcolor="#e58139"] ;
96 -> 104 ;
105 [label="gini = 0.0\nsamples = 20\nvalue = [20, 0, 0]\nclass = Low", fillcolor="#e58139"] ;
95 -> 105 ;
106 [label="material_cotton <= 0.5\ngini = 0.51\nsamples = 54\nvalue = [35, 6, 13]\nclass = Low", fillcolor="#f1bb95"] ;
70 -> 106 ;
107 [label="material_nylon <= 0.5\ngini = 0.25\nsamples = 41\nvalue = [35, 6, 0]\nclass = Low", fillcolor="#e9975b"] ;
106 -> 107 ;
108 [label="material_silk <= 0.5\ngini = 0.386\nsamples = 23\nvalue = [17, 6, 0]\nclass = Low", fillcolor="#eead7f"] ;
107 -> 108 ;
109 [label="gini = 0.0\nsamples = 17\nvalue = [17, 0, 0]\nclass = Low", fillcolor="#e58139"] ;
108 -> 109 ;
110 [label="gini = 0.0\nsamples = 6\nvalue = [0, 6, 0]\nclass = Medium", fillcolor="#39e581"] ;
108 -> 110 ;
111 [label="gini = 0.0\nsamples = 18\nvalue = [18, 0, 0]\nclass = Low", fillcolor="#e58139"] ;
107 -> 111 ;
112 [label="gini = 0.0\nsamples = 13\nvalue = [0, 0, 13]\nclass = High", fillcolor="#8139e5"] ;
106 -> 112 ;
113 [label="gini = 0.0\nsamples = 110\nvalue = [110, 0, 0]\nclass = Low", fillcolor="#e58139"] ;
69 -> 113 ;
114 [label="material_silk <= 0.5\ngini = 0.263\nsamples = 457\nvalue = [389, 20, 48]\nclass = Low", fillcolor="#e9965a"] ;
4 -> 114 ;
115 [label="material_cotton <= 0.5\ngini = 0.186\nsamples = 434\nvalue = [389, 0, 45]\nclass = Low", fillcolor="#e89050"] ;
114 -> 115 ;
116 [label="material_nylon <= 0.5\ngini = 0.114\nsamples = 346\nvalue = [325, 0, 21]\nclass = Low", fillcolor="#e78946"] ;
115 -> 116 ;
117 [label="size_S <= 0.5\ngini = 0.111\nsamples = 203\nvalue = [191, 0, 12]\nclass = Low", fillcolor="#e78945"] ;
116 -> 117 ;
118 [label="size_M <= 0.5\ngini = 0.123\nsamples = 182\nvalue = [170, 0, 12]\nclass = Low", fillcolor="#e78a47"] ;
117 -> 118 ;
119 [label="size_XL <= 0.5\ngini = 0.145\nsamples = 152\nvalue = [140, 0, 12]\nclass = Low", fillcolor="#e78c4a"] ;
118 -> 119 ;
120 [label="size_XXL <= 0.5\ngini = 0.193\nsamples = 111\nvalue = [99, 0, 12]\nclass = Low", fillcolor="#e89051"] ;
119 -> 120 ;
121 [label="size_L <= 0.5\ngini = 0.266\nsamples = 76\nvalue = [64, 0, 12]\nclass = Low", fillcolor="#ea995e"] ;
120 -> 121 ;
122 [label="material_polyester <= 0.5\ngini = 0.496\nsamples = 22\nvalue = [10, 0, 12]\nclass = High", fillcolor="#eadefb"] ;
121 -> 122 ;
123 [label="gini = 0.0\nsamples = 10\nvalue = [10, 0, 0]\nclass = Low", fillcolor="#e58139"] ;
122 -> 123 ;
124 [label="gini = 0.0\nsamples = 12\nvalue = [0, 0, 12]\nclass = High", fillcolor="#8139e5"] ;
122 -> 124 ;
125 [label="gini = 0.0\nsamples = 54\nvalue = [54, 0, 0]\nclass = Low", fillcolor="#e58139"] ;
121 -> 125 ;
126 [label="gini = 0.0\nsamples = 35\nvalue = [35, 0, 0]\nclass = Low", fillcolor="#e58139"] ;
120 -> 126 ;
127 [label="gini = 0.0\nsamples = 41\nvalue = [41, 0, 0]\nclass = Low", fillcolor="#e58139"] ;
119 -> 127 ;
128 [label="gini = 0.0\nsamples = 30\nvalue = [30, 0, 0]\nclass = Low", fillcolor="#e58139"] ;
118 -> 128 ;
129 [label="gini = 0.0\nsamples = 21\nvalue = [21, 0, 0]\nclass = Low", fillcolor="#e58139"] ;
117 -> 129 ;
130 [label="size_M <= 0.5\ngini = 0.118\nsamples = 143\nvalue = [134, 0, 9]\nclass = Low", fillcolor="#e78946"] ;
116 -> 130 ;
131 [label="size_XL <= 0.5\ngini = 0.139\nsamples = 120\nvalue = [111, 0, 9]\nclass = Low", fillcolor="#e78b49"] ;
130 -> 131 ;
132 [label="size_L <= 0.5\ngini = 0.189\nsamples = 85\nvalue = [76, 0, 9]\nclass = Low", fillcolor="#e89050"] ;
131 -> 132 ;
133 [label="size_S <= 0.5\ngini = 0.286\nsamples = 52\nvalue = [43, 0, 9]\nclass = Low", fillcolor="#ea9b62"] ;
132 -> 133 ;
134 [label="size_XXL <= 0.5\ngini = 0.382\nsamples = 35\nvalue = [26, 0, 9]\nclass = Low", fillcolor="#eead7e"] ;
133 -> 134 ;
135 [label="gini = 0.0\nsamples = 9\nvalue = [0, 0, 9]\nclass = High", fillcolor="#8139e5"] ;
134 -> 135 ;
136 [label="gini = 0.0\nsamples = 26\nvalue = [26, 0, 0]\nclass = Low", fillcolor="#e58139"] ;
134 -> 136 ;
137 [label="gini = 0.0\nsamples = 17\nvalue = [17, 0, 0]\nclass = Low", fillcolor="#e58139"] ;
133 -> 137 ;
138 [label="gini = 0.0\nsamples = 33\nvalue = [33, 0, 0]\nclass = Low", fillcolor="#e58139"] ;
132 -> 138 ;
139 [label="gini = 0.0\nsamples = 35\nvalue = [35, 0, 0]\nclass = Low", fillcolor="#e58139"] ;
131 -> 139 ;
140 [label="gini = 0.0\nsamples = 23\nvalue = [23, 0, 0]\nclass = Low", fillcolor="#e58139"] ;
130 -> 140 ;
141 [label="size_L <= 0.5\ngini = 0.397\nsamples = 88\nvalue = [64, 0, 24]\nclass = Low", fillcolor="#efb083"] ;
115 -> 141 ;
142 [label="size_XL <= 0.5\ngini = 0.444\nsamples = 72\nvalue = [48, 0, 24]\nclass = Low", fillcolor="#f2c09c"] ;
141 -> 142 ;
143 [label="size_XXL <= 0.5\ngini = 0.497\nsamples = 52\nvalue = [28, 0, 24]\nclass = Low", fillcolor="#fbede3"] ;
142 -> 143 ;
144 [label="size_S <= 0.5\ngini = 0.291\nsamples = 34\nvalue = [28, 0, 6]\nclass = Low", fillcolor="#eb9c63"] ;
143 -> 144 ;
145 [label="size_3XL <= 0.5\ngini = 0.375\nsamples = 24\nvalue = [18, 0, 6]\nclass = Low", fillcolor="#eeab7b"] ;
144 -> 145 ;
146 [label="gini = 0.0\nsamples = 18\nvalue = [18, 0, 0]\nclass = Low", fillcolor="#e58139"] ;
145 -> 146 ;
147 [label="gini = 0.0\nsamples = 6\nvalue = [0, 0, 6]\nclass = High", fillcolor="#8139e5"] ;
145 -> 147 ;
148 [label="gini = 0.0\nsamples = 10\nvalue = [10, 0, 0]\nclass = Low", fillcolor="#e58139"] ;
144 -> 148 ;
149 [label="gini = 0.0\nsamples = 18\nvalue = [0, 0, 18]\nclass = High", fillcolor="#8139e5"] ;
143 -> 149 ;
150 [label="gini = 0.0\nsamples = 20\nvalue = [20, 0, 0]\nclass = Low", fillcolor="#e58139"] ;
142 -> 150 ;
151 [label="gini = 0.0\nsamples = 16\nvalue = [16, 0, 0]\nclass = Low", fillcolor="#e58139"] ;
141 -> 151 ;
152 [label="size_3XL <= 0.5\ngini = 0.227\nsamples = 23\nvalue = [0, 20, 3]\nclass = Medium", fillcolor="#57e994"] ;
114 -> 152 ;
153 [label="size_S <= 0.5\ngini = 0.245\nsamples = 21\nvalue = [0, 18, 3]\nclass = Medium", fillcolor="#5ae996"] ;
152 -> 153 ;
154 [label="gini = 0.0\nsamples = 18\nvalue = [0, 18, 0]\nclass = Medium", fillcolor="#39e581"] ;
153 -> 154 ;
155 [label="gini = 0.0\nsamples = 3\nvalue = [0, 0, 3]\nclass = High", fillcolor="#8139e5"] ;
153 -> 155 ;
156 [label="gini = 0.0\nsamples = 2\nvalue = [0, 2, 0]\nclass = Medium", fillcolor="#39e581"] ;
152 -> 156 ;
157 [label="material_nylon <= 0.5\ngini = 0.662\nsamples = 1211\nvalue = [423, 340, 448]\nclass = High", fillcolor="#fbf9fe"] ;
3 -> 157 ;
158 [label="material_cotton <= 0.5\ngini = 0.651\nsamples = 867\nvalue = [343, 200, 324]\nclass = Low", fillcolor="#fefbf8"] ;
157 -> 158 ;
159 [label="size_3XL <= 0.5\ngini = 0.667\nsamples = 600\nvalue = [199, 200, 201]\nclass = High", fillcolor="#ffffff"] ;
158 -> 159 ;
160 [label="material_silk <= 0.5\ngini = 0.664\nsamples = 550\nvalue = [199, 160, 191]\nclass = Low", fillcolor="#fefcfb"] ;
159 -> 160 ;
161 [label="size_S <= 0.5\ngini = 0.647\nsamples = 500\nvalue = [199, 110, 191]\nclass = Low", fillcolor="#fefcfa"] ;
160 -> 161 ;
162 [label="size_XXL <= 0.5\ngini = 0.658\nsamples = 409\nvalue = [165, 110, 134]\nclass = Low", fillcolor="#fcf1e9"] ;
161 -> 162 ;
163 [label="size_M <= 0.5\ngini = 0.622\nsamples = 336\nvalue = [165, 65, 106]\nclass = Low", fillcolor="#f8dfcc"] ;
162 -> 163 ;
164 [label="size_XL <= 0.5\ngini = 0.582\nsamples = 229\nvalue = [128, 65, 36]\nclass = Low", fillcolor="#f5cfb3"] ;
163 -> 164 ;
165 [label="gini = 0.0\nsamples = 128\nvalue = [128, 0, 0]\nclass = Low", fillcolor="#e58139"] ;
164 -> 165 ;
166 [label="material_linen <= 0.5\ngini = 0.459\nsamples = 101\nvalue = [0, 65, 36]\nclass = Medium", fillcolor="#a7f3c7"] ;
164 -> 166 ;
167 [label="gini = 0.0\nsamples = 65\nvalue = [0, 65, 0]\nclass = Medium", fillcolor="#39e581"] ;
166 -> 167 ;
168 [label="gini = 0.0\nsamples = 36\nvalue = [0, 0, 36]\nclass = High", fillcolor="#8139e5"] ;
166 -> 168 ;
169 [label="material_linen <= 0.5\ngini = 0.452\nsamples = 107\nvalue = [37, 0, 70]\nclass = High", fillcolor="#c4a2f3"] ;
163 -> 169 ;
170 [label="gini = 0.0\nsamples = 70\nvalue = [0, 0, 70]\nclass = High", fillcolor="#8139e5"] ;
169 -> 170 ;
171 [label="gini = 0.0\nsamples = 37\nvalue = [37, 0, 0]\nclass = Low", fillcolor="#e58139"] ;
169 -> 171 ;
172 [label="material_polyester <= 0.5\ngini = 0.473\nsamples = 73\nvalue = [0, 45, 28]\nclass = Medium", fillcolor="#b4f5cf"] ;
162 -> 172 ;
173 [label="gini = 0.0\nsamples = 28\nvalue = [0, 0, 28]\nclass = High", fillcolor="#8139e5"] ;
172 -> 173 ;
174 [label="gini = 0.0\nsamples = 45\nvalue = [0, 45, 0]\nclass = Medium", fillcolor="#39e581"] ;
172 -> 174 ;
175 [label="material_linen <= 0.5\ngini = 0.468\nsamples = 91\nvalue = [34, 0, 57]\nclass = High", fillcolor="#ccaff5"] ;
161 -> 175 ;
176 [label="gini = 0.0\nsamples = 57\nvalue = [0, 0, 57]\nclass = High", fillcolor="#8139e5"] ;
175 -> 176 ;
177 [label="gini = 0.0\nsamples = 34\nvalue = [34, 0, 0]\nclass = Low", fillcolor="#e58139"] ;
175 -> 177 ;
178 [label="gini = 0.0\nsamples = 50\nvalue = [0, 50, 0]\nclass = Medium", fillcolor="#39e581"] ;
160 -> 178 ;
179 [label="material_silk <= 0.5\ngini = 0.32\nsamples = 50\nvalue = [0, 40, 10]\nclass = Medium", fillcolor="#6aeca0"] ;
159 -> 179 ;
180 [label="material_linen <= 0.5\ngini = 0.351\nsamples = 44\nvalue = [0, 34, 10]\nclass = Medium", fillcolor="#73eda6"] ;
179 -> 180 ;
181 [label="gini = 0.0\nsamples = 22\nvalue = [0, 22, 0]\nclass = Medium", fillcolor="#39e581"] ;
180 -> 181 ;
182 [label="gini = 0.496\nsamples = 22\nvalue = [0, 12, 10]\nclass = Medium", fillcolor="#defbea"] ;
180 -> 182 ;
183 [label="gini = 0.0\nsamples = 6\nvalue = [0, 6, 0]\nclass = Medium", fillcolor="#39e581"] ;
179 -> 183 ;
184 [label="size_XXL <= 0.5\ngini = 0.497\nsamples = 267\nvalue = [144, 0, 123]\nclass = Low", fillcolor="#fbede2"] ;
158 -> 184 ;
185 [label="size_M <= 0.5\ngini = 0.472\nsamples = 233\nvalue = [144, 0, 89]\nclass = Low", fillcolor="#f5cfb3"] ;
184 -> 185 ;
186 [label="size_3XL <= 0.5\ngini = 0.499\nsamples = 187\nvalue = [98, 0, 89]\nclass = Low", fillcolor="#fdf3ed"] ;
185 -> 186 ;
187 [label="size_L <= 0.5\ngini = 0.465\nsamples = 155\nvalue = [98, 0, 57]\nclass = Low", fillcolor="#f4caac"] ;
186 -> 187 ;
188 [label="size_S <= 0.5\ngini = 0.475\nsamples = 93\nvalue = [36, 0, 57]\nclass = High", fillcolor="#d1b6f5"] ;
187 -> 188 ;
189 [label="gini = 0.0\nsamples = 57\nvalue = [0, 0, 57]\nclass = High", fillcolor="#8139e5"] ;
188 -> 189 ;
190 [label="gini = 0.0\nsamples = 36\nvalue = [36, 0, 0]\nclass = Low", fillcolor="#e58139"] ;
188 -> 190 ;
191 [label="gini = 0.0\nsamples = 62\nvalue = [62, 0, 0]\nclass = Low", fillcolor="#e58139"] ;
187 -> 191 ;
192 [label="gini = 0.0\nsamples = 32\nvalue = [0, 0, 32]\nclass = High", fillcolor="#8139e5"] ;
186 -> 192 ;
193 [label="gini = 0.0\nsamples = 46\nvalue = [46, 0, 0]\nclass = Low", fillcolor="#e58139"] ;
185 -> 193 ;
194 [label="gini = 0.0\nsamples = 34\nvalue = [0, 0, 34]\nclass = High", fillcolor="#8139e5"] ;
184 -> 194 ;
195 [label="size_XXL <= 0.5\ngini = 0.65\nsamples = 344\nvalue = [80, 140, 124]\nclass = Medium", fillcolor="#f1fdf6"] ;
157 -> 195 ;
196 [label="size_3XL <= 0.5\ngini = 0.654\nsamples = 293\nvalue = [80, 89, 124]\nclass = High", fillcolor="#e9ddfb"] ;
195 -> 196 ;
197 [label="size_L <= 0.5\ngini = 0.636\nsamples = 264\nvalue = [80, 60, 124]\nclass = High", fillcolor="#e1d0f9"] ;
196 -> 197 ;
198 [label="size_M <= 0.5\ngini = 0.44\nsamples = 184\nvalue = [0, 60, 124]\nclass = High", fillcolor="#be99f2"] ;
197 -> 198 ;
199 [label="size_S <= 0.5\ngini = 0.497\nsamples = 111\nvalue = [0, 60, 51]\nclass = Medium", fillcolor="#e1fbec"] ;
198 -> 199 ;
200 [label="gini = 0.0\nsamples = 60\nvalue = [0, 60, 0]\nclass = Medium", fillcolor="#39e581"] ;
199 -> 200 ;
201 [label="gini = 0.0\nsamples = 51\nvalue = [0, 0, 51]\nclass = High", fillcolor="#8139e5"] ;
199 -> 201 ;
202 [label="gini = 0.0\nsamples = 73\nvalue = [0, 0, 73]\nclass = High", fillcolor="#8139e5"] ;
198 -> 202 ;
203 [label="gini = 0.0\nsamples = 80\nvalue = [80, 0, 0]\nclass = Low", fillcolor="#e58139"] ;
197 -> 203 ;
204 [label="gini = 0.0\nsamples = 29\nvalue = [0, 29, 0]\nclass = Medium", fillcolor="#39e581"] ;
196 -> 204 ;
205 [label="gini = 0.0\nsamples = 51\nvalue = [0, 51, 0]\nclass = Medium", fillcolor="#39e581"] ;
195 -> 205 ;
206 [label="material_silk <= 0.5\ngini = 0.56\nsamples = 6247\nvalue = [1453, 1058, 3736]\nclass = High", fillcolor="#c3a1f3"] ;
2 -> 206 ;
207 [label="size_M <= 0.5\ngini = 0.535\nsamples = 5896\nvalue = [1453, 778, 3665]\nclass = High", fillcolor="#c09cf2"] ;
206 -> 207 ;
208 [label="material_linen <= 0.5\ngini = 0.563\nsamples = 4805\nvalue = [1255, 724, 2826]\nclass = High", fillcolor="#c7a7f3"] ;
207 -> 208 ;
209 [label="size_3XL <= 0.5\ngini = 0.532\nsamples = 3968\nvalue = [742, 714, 2512]\nclass = High", fillcolor="#ba92f1"] ;
208 -> 209 ;
210 [label="color_white <= 0.5\ngini = 0.492\nsamples = 3497\nvalue = [742, 411, 2344]\nclass = High", fillcolor="#b68cf0"] ;
209 -> 210 ;
211 [label="color_violet <= 0.5\ngini = 0.382\nsamples = 2827\nvalue = [455, 206, 2166]\nclass = High", fillcolor="#a470ec"] ;
210 -> 211 ;
212 [label="size_XL <= 0.5\ngini = 0.374\nsamples = 2554\nvalue = [421, 163, 1970]\nclass = High", fillcolor="#a36fec"] ;
211 -> 212 ;
213 [label="size_XXL <= 0.5\ngini = 0.447\nsamples = 1881\nvalue = [421, 132, 1328]\nclass = High", fillcolor="#b184ef"] ;
212 -> 213 ;
214 [label="size_S <= 0.5\ngini = 0.427\nsamples = 1363\nvalue = [421, 0, 942]\nclass = High", fillcolor="#b991f1"] ;
213 -> 214 ;
215 [label="gini = 0.0\nsamples = 892\nvalue = [0, 0, 892]\nclass = High", fillcolor="#8139e5"] ;
214 -> 215 ;
216 [label="material_nylon <= 0.5\ngini = 0.19\nsamples = 471\nvalue = [421, 0, 50]\nclass = Low", fillcolor="#e89051"] ;
214 -> 216 ;
217 [label="color_cream <= 0.5\ngini = 0.244\nsamples = 309\nvalue = [265, 0, 44]\nclass = Low", fillcolor="#e9965a"] ;
216 -> 217 ;
218 [label="material_polyester <= 0.5\ngini = 0.286\nsamples = 254\nvalue = [210, 0, 44]\nclass = Low", fillcolor="#ea9b62"] ;
217 -> 218 ;
219 [label="color_green <= 0.5\ngini = 0.45\nsamples = 114\nvalue = [75, 0, 39]\nclass = Low", fillcolor="#f3c3a0"] ;
218 -> 219 ;
220 [label="color_navy <= 0.5\ngini = 0.389\nsamples = 102\nvalue = [75, 0, 27]\nclass = Low", fillcolor="#eeae80"] ;
219 -> 220 ;
221 [label="color_orange <= 0.5\ngini = 0.458\nsamples = 76\nvalue = [49, 0, 27]\nclass = Low", fillcolor="#f3c6a6"] ;
220 -> 221 ;
222 [label="color_blue <= 0.5\ngini = 0.371\nsamples = 65\nvalue = [49, 0, 16]\nclass = Low", fillcolor="#edaa7a"] ;
221 -> 222 ;
223 [label="color_red <= 0.5\ngini = 0.484\nsamples = 39\nvalue = [23, 0, 16]\nclass = Low", fillcolor="#f7d9c3"] ;
222 -> 223 ;
224 [label="gini = 0.0\nsamples = 16\nvalue = [0, 0, 16]\nclass = High", fillcolor="#8139e5"] ;
223 -> 224 ;
225 [label="gini = 0.0\nsamples = 23\nvalue = [23, 0, 0]\nclass = Low", fillcolor="#e58139"] ;
223 -> 225 ;
226 [label="gini = 0.0\nsamples = 26\nvalue = [26, 0, 0]\nclass = Low", fillcolor="#e58139"] ;
222 -> 226 ;
227 [label="gini = 0.0\nsamples = 11\nvalue = [0, 0, 11]\nclass = High", fillcolor="#8139e5"] ;
221 -> 227 ;
228 [label="gini = 0.0\nsamples = 26\nvalue = [26, 0, 0]\nclass = Low", fillcolor="#e58139"] ;
220 -> 228 ;
229 [label="gini = 0.0\nsamples = 12\nvalue = [0, 0, 12]\nclass = High", fillcolor="#8139e5"] ;
219 -> 229 ;
230 [label="color_green <= 0.5\ngini = 0.069\nsamples = 140\nvalue = [135, 0, 5]\nclass = Low", fillcolor="#e68640"] ;
218 -> 230 ;
231 [label="gini = 0.0\nsamples = 133\nvalue = [133, 0, 0]\nclass = Low", fillcolor="#e58139"] ;
230 -> 231 ;
232 [label="gini = 0.408\nsamples = 7\nvalue = [2, 0, 5]\nclass = High", fillcolor="#b388ef"] ;
230 -> 232 ;
233 [label="gini = 0.0\nsamples = 55\nvalue = [55, 0, 0]\nclass = Low", fillcolor="#e58139"] ;
217 -> 233 ;
234 [label="color_green <= 0.5\ngini = 0.071\nsamples = 162\nvalue = [156, 0, 6]\nclass = Low", fillcolor="#e68641"] ;
216 -> 234 ;
235 [label="gini = 0.0\nsamples = 148\nvalue = [148, 0, 0]\nclass = Low", fillcolor="#e58139"] ;
234 -> 235 ;
236 [label="gini = 0.49\nsamples = 14\nvalue = [8, 0, 6]\nclass = Low", fillcolor="#f8e0ce"] ;
234 -> 236 ;
237 [label="color_green <= 0.5\ngini = 0.38\nsamples = 518\nvalue = [0, 132, 386]\nclass = High", fillcolor="#ac7dee"] ;
213 -> 237 ;
238 [label="color_navy <= 0.5\ngini = 0.287\nsamples = 467\nvalue = [0, 81, 386]\nclass = High", fillcolor="#9b63ea"] ;
237 -> 238 ;
239 [label="material_cotton <= 0.5\ngini = 0.347\nsamples = 363\nvalue = [0, 81, 282]\nclass = High", fillcolor="#a572ec"] ;
238 -> 239 ;
240 [label="color_cream <= 0.5\ngini = 0.232\nsamples = 269\nvalue = [0, 36, 233]\nclass = High", fillcolor="#9458e9"] ;
239 -> 240 ;
241 [label="color_blue <= 0.5\ngini = 0.293\nsamples = 202\nvalue = [0, 36, 166]\nclass = High", fillcolor="#9c64eb"] ;
240 -> 241 ;
242 [label="color_yellow <= 0.5\ngini = 0.397\nsamples = 132\nvalue = [0, 36, 96]\nclass = High", fillcolor="#b083ef"] ;
241 -> 242 ;
243 [label="color_red <= 0.5\ngini = 0.307\nsamples = 95\nvalue = [0, 18, 77]\nclass = High", fillcolor="#9e67eb"] ;
242 -> 243 ;
244 [label="material_nylon <= 0.5\ngini = 0.498\nsamples = 34\nvalue = [0, 18, 16]\nclass = Medium", fillcolor="#e9fcf1"] ;
243 -> 244 ;
245 [label="gini = 0.457\nsamples = 17\nvalue = [0, 11, 6]\nclass = Medium", fillcolor="#a5f3c6"] ;
244 -> 245 ;
246 [label="gini = 0.484\nsamples = 17\nvalue = [0, 7, 10]\nclass = High", fillcolor="#d9c4f7"] ;
244 -> 246 ;
247 [label="gini = 0.0\nsamples = 61\nvalue = [0, 0, 61]\nclass = High", fillcolor="#8139e5"] ;
243 -> 247 ;
248 [label="material_polyester <= 0.5\ngini = 0.5\nsamples = 37\nvalue = [0, 18, 19]\nclass = High", fillcolor="#f8f5fe"] ;
242 -> 248 ;
249 [label="gini = 0.48\nsamples = 20\nvalue = [0, 8, 12]\nclass = High", fillcolor="#d5bdf6"] ;
248 -> 249 ;
250 [label="gini = 0.484\nsamples = 17\nvalue = [0, 10, 7]\nclass = Medium", fillcolor="#c4f7d9"] ;
248 -> 250 ;
251 [label="gini = 0.0\nsamples = 70\nvalue = [0, 0, 70]\nclass = High", fillcolor="#8139e5"] ;
241 -> 251 ;
252 [label="gini = 0.0\nsamples = 67\nvalue = [0, 0, 67]\nclass = High", fillcolor="#8139e5"] ;
240 -> 252 ;
253 [label="color_cream <= 0.5\ngini = 0.499\nsamples = 94\nvalue = [0, 45, 49]\nclass = High", fillcolor="#f5effd"] ;
239 -> 253 ;
254 [label="color_yellow <= 0.5\ngini = 0.434\nsamples = 66\nvalue = [0, 45, 21]\nclass = Medium", fillcolor="#95f1bc"] ;
253 -> 254 ;
255 [label="color_red <= 0.5\ngini = 0.478\nsamples = 53\nvalue = [0, 32, 21]\nclass = Medium", fillcolor="#bbf6d4"] ;
254 -> 255 ;
256 [label="color_orange <= 0.5\ngini = 0.491\nsamples = 30\nvalue = [0, 17, 13]\nclass = Medium", fillcolor="#d0f9e1"] ;
255 -> 256 ;
257 [label="gini = 0.472\nsamples = 21\nvalue = [0, 8, 13]\nclass = High", fillcolor="#cfb3f5"] ;
256 -> 257 ;
258 [label="gini = 0.0\nsamples = 9\nvalue = [0, 9, 0]\nclass = Medium", fillcolor="#39e581"] ;
256 -> 258 ;
259 [label="gini = 0.454\nsamples = 23\nvalue = [0, 15, 8]\nclass = Medium", fillcolor="#a3f3c4"] ;
255 -> 259 ;
260 [label="gini = 0.0\nsamples = 13\nvalue = [0, 13, 0]\nclass = Medium", fillcolor="#39e581"] ;
254 -> 260 ;
261 [label="gini = 0.0\nsamples = 28\nvalue = [0, 0, 28]\nclass = High", fillcolor="#8139e5"] ;
253 -> 261 ;
262 [label="gini = 0.0\nsamples = 104\nvalue = [0, 0, 104]\nclass = High", fillcolor="#8139e5"] ;
238 -> 262 ;
263 [label="gini = 0.0\nsamples = 51\nvalue = [0, 51, 0]\nclass = Medium", fillcolor="#39e581"] ;
237 -> 263 ;
264 [label="material_cotton <= 0.5\ngini = 0.088\nsamples = 673\nvalue = [0, 31, 642]\nclass = High", fillcolor="#8743e6"] ;
212 -> 264 ;
265 [label="gini = 0.0\nsamples = 479\nvalue = [0, 0, 479]\nclass = High", fillcolor="#8139e5"] ;
264 -> 265 ;
266 [label="color_green <= 0.5\ngini = 0.269\nsamples = 194\nvalue = [0, 31, 163]\nclass = High", fillcolor="#995fea"] ;
264 -> 266 ;
267 [label="color_cream <= 0.5\ngini = 0.146\nsamples = 177\nvalue = [0, 14, 163]\nclass = High", fillcolor="#8c4ae7"] ;
266 -> 267 ;
268 [label="color_yellow <= 0.5\ngini = 0.183\nsamples = 137\nvalue = [0, 14, 123]\nclass = High", fillcolor="#8f50e8"] ;
267 -> 268 ;
269 [label="color_orange <= 0.5\ngini = 0.123\nsamples = 121\nvalue = [0, 8, 113]\nclass = High", fillcolor="#8a47e7"] ;
268 -> 269 ;
270 [label="gini = 0.0\nsamples = 103\nvalue = [0, 0, 103]\nclass = High", fillcolor="#8139e5"] ;
269 -> 270 ;
271 [label="gini = 0.494\nsamples = 18\nvalue = [0, 8, 10]\nclass = High", fillcolor="#e6d7fa"] ;
269 -> 271 ;
272 [label="gini = 0.469\nsamples = 16\nvalue = [0, 6, 10]\nclass = High", fillcolor="#cdb0f5"] ;
268 -> 272 ;
273 [label="gini = 0.0\nsamples = 40\nvalue = [0, 0, 40]\nclass = High", fillcolor="#8139e5"] ;
267 -> 273 ;
274 [label="gini = 0.0\nsamples = 17\nvalue = [0, 17, 0]\nclass = Medium", fillcolor="#39e581"] ;
266 -> 274 ;
275 [label="material_nylon <= 0.5\ngini = 0.444\nsamples = 273\nvalue = [34, 43, 196]\nclass = High", fillcolor="#ab7bee"] ;
211 -> 275 ;
276 [label="material_polyester <= 0.5\ngini = 0.497\nsamples = 171\nvalue = [22, 35, 114]\nclass = High", fillcolor="#b68cf0"] ;
275 -> 276 ;
277 [label="size_XXL <= 0.5\ngini = 0.432\nsamples = 73\nvalue = [0, 23, 50]\nclass = High", fillcolor="#bb94f1"] ;
276 -> 277 ;
278 [label="size_S <= 0.5\ngini = 0.296\nsamples = 61\nvalue = [0, 11, 50]\nclass = High", fillcolor="#9d65eb"] ;
277 -> 278 ;
279 [label="size_L <= 0.5\ngini = 0.375\nsamples = 44\nvalue = [0, 11, 33]\nclass = High", fillcolor="#ab7bee"] ;
278 -> 279 ;
280 [label="gini = 0.475\nsamples = 18\nvalue = [0, 11, 7]\nclass = Medium", fillcolor="#b7f6d1"] ;
279 -> 280 ;
281 [label="gini = 0.0\nsamples = 26\nvalue = [0, 0, 26]\nclass = High", fillcolor="#8139e5"] ;
279 -> 281 ;
282 [label="gini = 0.0\nsamples = 17\nvalue = [0, 0, 17]\nclass = High", fillcolor="#8139e5"] ;
278 -> 282 ;
283 [label="gini = 0.0\nsamples = 12\nvalue = [0, 12, 0]\nclass = Medium", fillcolor="#39e581"] ;
277 -> 283 ;
284 [label="size_S <= 0.5\ngini = 0.508\nsamples = 98\nvalue = [22, 12, 64]\nclass = High", fillcolor="#b992f1"] ;
276 -> 284 ;
285 [label="size_XL <= 0.5\ngini = 0.266\nsamples = 76\nvalue = [0, 12, 64]\nclass = High", fillcolor="#995eea"] ;
284 -> 285 ;
286 [label="size_L <= 0.5\ngini = 0.38\nsamples = 47\nvalue = [0, 12, 35]\nclass = High", fillcolor="#ac7dee"] ;
285 -> 286 ;
287 [label="gini = 0.48\nsamples = 20\nvalue = [0, 12, 8]\nclass = Medium", fillcolor="#bdf6d5"] ;
286 -> 287 ;
288 [label="gini = 0.0\nsamples = 27\nvalue = [0, 0, 27]\nclass = High", fillcolor="#8139e5"] ;
286 -> 288 ;
289 [label="gini = 0.0\nsamples = 29\nvalue = [0, 0, 29]\nclass = High", fillcolor="#8139e5"] ;
285 -> 289 ;
290 [label="gini = 0.0\nsamples = 22\nvalue = [22, 0, 0]\nclass = Low", fillcolor="#e58139"] ;
284 -> 290 ;
291 [label="size_XL <= 0.5\ngini = 0.334\nsamples = 102\nvalue = [12, 8, 82]\nclass = High", fillcolor="#9d65eb"] ;
275 -> 291 ;
292 [label="size_XXL <= 0.5\ngini = 0.443\nsamples = 71\nvalue = [12, 8, 51]\nclass = High", fillcolor="#ac7cee"] ;
291 -> 292 ;
293 [label="size_S <= 0.5\ngini = 0.355\nsamples = 52\nvalue = [12, 0, 40]\nclass = High", fillcolor="#a774ed"] ;
292 -> 293 ;
294 [label="gini = 0.0\nsamples = 40\nvalue = [0, 0, 40]\nclass = High", fillcolor="#8139e5"] ;
293 -> 294 ;
295 [label="gini = 0.0\nsamples = 12\nvalue = [12, 0, 0]\nclass = Low", fillcolor="#e58139"] ;
293 -> 295 ;
296 [label="gini = 0.488\nsamples = 19\nvalue = [0, 8, 11]\nclass = High", fillcolor="#ddc9f8"] ;
292 -> 296 ;
297 [label="gini = 0.0\nsamples = 31\nvalue = [0, 0, 31]\nclass = High", fillcolor="#8139e5"] ;
291 -> 297 ;
298 [label="material_polyester <= 0.5\ngini = 0.652\nsamples = 670\nvalue = [287, 205, 178]\nclass = Low", fillcolor="#fae9dc"] ;
210 -> 298 ;
299 [label="size_L <= 0.5\ngini = 0.637\nsamples = 432\nvalue = [203, 102, 127]\nclass = Low", fillcolor="#f9e0ce"] ;
298 -> 299 ;
300 [label="size_XXL <= 0.5\ngini = 0.609\nsamples = 268\nvalue = [39, 102, 127]\nclass = High", fillcolor="#ece1fb"] ;
299 -> 300 ;
301 [label="material_cotton <= 0.5\ngini = 0.625\nsamples = 182\nvalue = [39, 53, 90]\nclass = High", fillcolor="#dbc6f8"] ;
300 -> 301 ;
302 [label="size_XL <= 0.5\ngini = 0.497\nsamples = 98\nvalue = [0, 53, 45]\nclass = Medium", fillcolor="#e1fbec"] ;
301 -> 302 ;
303 [label="gini = 0.0\nsamples = 45\nvalue = [0, 0, 45]\nclass = High", fillcolor="#8139e5"] ;
302 -> 303 ;
304 [label="gini = 0.0\nsamples = 53\nvalue = [0, 53, 0]\nclass = Medium", fillcolor="#39e581"] ;
302 -> 304 ;
305 [label="size_S <= 0.5\ngini = 0.497\nsamples = 84\nvalue = [39, 0, 45]\nclass = High", fillcolor="#eee5fc"] ;
301 -> 305 ;
306 [label="gini = 0.0\nsamples = 45\nvalue = [0, 0, 45]\nclass = High", fillcolor="#8139e5"] ;
305 -> 306 ;
307 [label="gini = 0.0\nsamples = 39\nvalue = [39, 0, 0]\nclass = Low", fillcolor="#e58139"] ;
305 -> 307 ;
308 [label="material_nylon <= 0.5\ngini = 0.49\nsamples = 86\nvalue = [0, 49, 37]\nclass = Medium", fillcolor="#cff9e0"] ;
300 -> 308 ;
309 [label="gini = 0.0\nsamples = 37\nvalue = [0, 0, 37]\nclass = High", fillcolor="#8139e5"] ;
308 -> 309 ;
310 [label="gini = 0.0\nsamples = 49\nvalue = [0, 49, 0]\nclass = Medium", fillcolor="#39e581"] ;
308 -> 310 ;
311 [label="gini = 0.0\nsamples = 164\nvalue = [164, 0, 0]\nclass = Low", fillcolor="#e58139"] ;
299 -> 311 ;
312 [label="size_L <= 0.5\ngini = 0.642\nsamples = 238\nvalue = [84, 103, 51]\nclass = Medium", fillcolor="#e7fcef"] ;
298 -> 312 ;
313 [label="size_S <= 0.5\ngini = 0.443\nsamples = 154\nvalue = [0, 103, 51]\nclass = Medium", fillcolor="#9bf2bf"] ;
312 -> 313 ;
314 [label="gini = 0.0\nsamples = 103\nvalue = [0, 103, 0]\nclass = Medium", fillcolor="#39e581"] ;
313 -> 314 ;
315 [label="gini = 0.0\nsamples = 51\nvalue = [0, 0, 51]\nclass = High", fillcolor="#8139e5"] ;
313 -> 315 ;
316 [label="gini = 0.0\nsamples = 84\nvalue = [84, 0, 0]\nclass = Low", fillcolor="#e58139"] ;
312 -> 316 ;
317 [label="color_navy <= 0.5\ngini = 0.459\nsamples = 471\nvalue = [0, 303, 168]\nclass = Medium", fillcolor="#a7f3c7"] ;
209 -> 317 ;
318 [label="color_green <= 0.5\ngini = 0.413\nsamples = 415\nvalue = [0, 294, 121]\nclass = Medium", fillcolor="#8af0b5"] ;
317 -> 318 ;
319 [label="material_cotton <= 0.5\ngini = 0.423\nsamples = 399\nvalue = [0, 278, 121]\nclass = Medium", fillcolor="#8ff0b8"] ;
318 -> 319 ;
320 [label="material_nylon <= 0.5\ngini = 0.441\nsamples = 302\nvalue = [0, 203, 99]\nclass = Medium", fillcolor="#9af2be"] ;
319 -> 320 ;
321 [label="color_white <= 0.5\ngini = 0.444\nsamples = 153\nvalue = [0, 102, 51]\nclass = Medium", fillcolor="#9cf2c0"] ;
320 -> 321 ;
322 [label="color_violet <= 0.5\ngini = 0.493\nsamples = 116\nvalue = [0, 65, 51]\nclass = Medium", fillcolor="#d4f9e4"] ;
321 -> 322 ;
323 [label="color_cream <= 0.5\ngini = 0.5\nsamples = 100\nvalue = [0, 49, 51]\nclass = High", fillcolor="#faf7fe"] ;
322 -> 323 ;
324 [label="color_yellow <= 0.5\ngini = 0.441\nsamples = 73\nvalue = [0, 49, 24]\nclass = Medium", fillcolor="#9af2bf"] ;
323 -> 324 ;
325 [label="color_orange <= 0.5\ngini = 0.483\nsamples = 59\nvalue = [0, 35, 24]\nclass = Medium", fillcolor="#c1f7d7"] ;
324 -> 325 ;
326 [label="color_blue <= 0.5\ngini = 0.493\nsamples = 43\nvalue = [0, 19, 24]\nclass = High", fillcolor="#e5d6fa"] ;
325 -> 326 ;
327 [label="gini = 0.495\nsamples = 20\nvalue = [0, 9, 11]\nclass = High", fillcolor="#e8dbfa"] ;
326 -> 327 ;
328 [label="gini = 0.491\nsamples = 23\nvalue = [0, 10, 13]\nclass = High", fillcolor="#e2d1f9"] ;
326 -> 328 ;
329 [label="gini = 0.0\nsamples = 16\nvalue = [0, 16, 0]\nclass = Medium", fillcolor="#39e581"] ;
325 -> 329 ;
330 [label="gini = 0.0\nsamples = 14\nvalue = [0, 14, 0]\nclass = Medium", fillcolor="#39e581"] ;
324 -> 330 ;
331 [label="gini = 0.0\nsamples = 27\nvalue = [0, 0, 27]\nclass = High", fillcolor="#8139e5"] ;
323 -> 331 ;
332 [label="gini = 0.0\nsamples = 16\nvalue = [0, 16, 0]\nclass = Medium", fillcolor="#39e581"] ;
322 -> 332 ;
333 [label="gini = 0.0\nsamples = 37\nvalue = [0, 37, 0]\nclass = Medium", fillcolor="#39e581"] ;
321 -> 333 ;
334 [label="color_cream <= 0.5\ngini = 0.437\nsamples = 149\nvalue = [0, 101, 48]\nclass = Medium", fillcolor="#97f1bd"] ;
320 -> 334 ;
335 [label="color_blue <= 0.5\ngini = 0.34\nsamples = 129\nvalue = [0, 101, 28]\nclass = Medium", fillcolor="#70eca4"] ;
334 -> 335 ;
336 [label="color_white <= 0.5\ngini = 0.235\nsamples = 103\nvalue = [0, 89, 14]\nclass = Medium", fillcolor="#58e995"] ;
335 -> 336 ;
337 [label="color_red <= 0.5\ngini = 0.313\nsamples = 72\nvalue = [0, 58, 14]\nclass = Medium", fillcolor="#69eb9f"] ;
336 -> 337 ;
338 [label="gini = 0.0\nsamples = 47\nvalue = [0, 47, 0]\nclass = Medium", fillcolor="#39e581"] ;
337 -> 338 ;
339 [label="gini = 0.493\nsamples = 25\nvalue = [0, 11, 14]\nclass = High", fillcolor="#e4d5f9"] ;
337 -> 339 ;
340 [label="gini = 0.0\nsamples = 31\nvalue = [0, 31, 0]\nclass = Medium", fillcolor="#39e581"] ;
336 -> 340 ;
341 [label="gini = 0.497\nsamples = 26\nvalue = [0, 12, 14]\nclass = High", fillcolor="#ede3fb"] ;
335 -> 341 ;
342 [label="gini = 0.0\nsamples = 20\nvalue = [0, 0, 20]\nclass = High", fillcolor="#8139e5"] ;
334 -> 342 ;
343 [label="color_yellow <= 0.5\ngini = 0.351\nsamples = 97\nvalue = [0, 75, 22]\nclass = Medium", fillcolor="#73eda6"] ;
319 -> 343 ;
344 [label="color_orange <= 0.5\ngini = 0.39\nsamples = 83\nvalue = [0, 61, 22]\nclass = Medium", fillcolor="#80eeae"] ;
343 -> 344 ;
345 [label="color_white <= 0.5\ngini = 0.431\nsamples = 70\nvalue = [0, 48, 22]\nclass = Medium", fillcolor="#94f1bb"] ;
344 -> 345 ;
346 [label="gini = 0.0\nsamples = 48\nvalue = [0, 48, 0]\nclass = Medium", fillcolor="#39e581"] ;
345 -> 346 ;
347 [label="gini = 0.0\nsamples = 22\nvalue = [0, 0, 22]\nclass = High", fillcolor="#8139e5"] ;
345 -> 347 ;
348 [label="gini = 0.0\nsamples = 13\nvalue = [0, 13, 0]\nclass = Medium", fillcolor="#39e581"] ;
344 -> 348 ;
349 [label="gini = 0.0\nsamples = 14\nvalue = [0, 14, 0]\nclass = Medium", fillcolor="#39e581"] ;
343 -> 349 ;
350 [label="gini = 0.0\nsamples = 16\nvalue = [0, 16, 0]\nclass = Medium", fillcolor="#39e581"] ;
318 -> 350 ;
351 [label="material_polyester <= 0.5\ngini = 0.27\nsamples = 56\nvalue = [0, 9, 47]\nclass = High", fillcolor="#995fea"] ;
317 -> 351 ;
352 [label="material_nylon <= 0.5\ngini = 0.412\nsamples = 31\nvalue = [0, 9, 22]\nclass = High", fillcolor="#b58af0"] ;
351 -> 352 ;
353 [label="gini = 0.0\nsamples = 9\nvalue = [0, 9, 0]\nclass = Medium", fillcolor="#39e581"] ;
352 -> 353 ;
354 [label="gini = 0.0\nsamples = 22\nvalue = [0, 0, 22]\nclass = High", fillcolor="#8139e5"] ;
352 -> 354 ;
355 [label="gini = 0.0\nsamples = 25\nvalue = [0, 0, 25]\nclass = High", fillcolor="#8139e5"] ;
351 -> 355 ;
356 [label="size_S <= 0.5\ngini = 0.483\nsamples = 837\nvalue = [513, 10, 314]\nclass = Low", fillcolor="#f5cfb4"] ;
208 -> 356 ;
357 [label="color_cream <= 0.5\ngini = 0.512\nsamples = 684\nvalue = [360, 10, 314]\nclass = Low", fillcolor="#fcefe6"] ;
356 -> 357 ;
358 [label="size_L <= 0.5\ngini = 0.517\nsamples = 582\nvalue = [281, 10, 291]\nclass = High", fillcolor="#fbf8fe"] ;
357 -> 358 ;
359 [label="color_orange <= 0.5\ngini = 0.4\nsamples = 392\nvalue = [93, 10, 289]\nclass = High", fillcolor="#ac7dee"] ;
358 -> 359 ;
360 [label="size_3XL <= 0.5\ngini = 0.428\nsamples = 353\nvalue = [93, 10, 250]\nclass = High", fillcolor="#b387ef"] ;
359 -> 360 ;
361 [label="color_green <= 0.5\ngini = 0.45\nsamples = 272\nvalue = [93, 0, 179]\nclass = High", fillcolor="#c2a0f3"] ;
360 -> 361 ;
362 [label="color_blue <= 0.5\ngini = 0.466\nsamples = 252\nvalue = [93, 0, 159]\nclass = High", fillcolor="#cbadf4"] ;
361 -> 362 ;
363 [label="color_violet <= 0.5\ngini = 0.443\nsamples = 220\nvalue = [73, 0, 147]\nclass = High", fillcolor="#c09bf2"] ;
362 -> 363 ;
364 [label="size_XXL <= 0.5\ngini = 0.473\nsamples = 190\nvalue = [73, 0, 117]\nclass = High", fillcolor="#d0b5f5"] ;
363 -> 364 ;
365 [label="color_white <= 0.5\ngini = 0.5\nsamples = 108\nvalue = [55, 0, 53]\nclass = Low", fillcolor="#fefaf8"] ;
364 -> 365 ;
366 [label="color_navy <= 0.5\ngini = 0.349\nsamples = 71\nvalue = [55, 0, 16]\nclass = Low", fillcolor="#eda673"] ;
365 -> 366 ;
367 [label="color_red <= 0.5\ngini = 0.458\nsamples = 45\nvalue = [29, 0, 16]\nclass = Low", fillcolor="#f3c7a6"] ;
366 -> 367 ;
368 [label="gini = 0.0\nsamples = 16\nvalue = [0, 0, 16]\nclass = High", fillcolor="#8139e5"] ;
367 -> 368 ;
369 [label="gini = 0.0\nsamples = 29\nvalue = [29, 0, 0]\nclass = Low", fillcolor="#e58139"] ;
367 -> 369 ;
370 [label="gini = 0.0\nsamples = 26\nvalue = [26, 0, 0]\nclass = Low", fillcolor="#e58139"] ;
366 -> 370 ;
371 [label="gini = 0.0\nsamples = 37\nvalue = [0, 0, 37]\nclass = High", fillcolor="#8139e5"] ;
365 -> 371 ;
372 [label="color_navy <= 0.5\ngini = 0.343\nsamples = 82\nvalue = [18, 0, 64]\nclass = High", fillcolor="#a471ec"] ;
364 -> 372 ;
373 [label="gini = 0.0\nsamples = 58\nvalue = [0, 0, 58]\nclass = High", fillcolor="#8139e5"] ;
372 -> 373 ;
374 [label="gini = 0.375\nsamples = 24\nvalue = [18, 0, 6]\nclass = Low", fillcolor="#eeab7b"] ;
372 -> 374 ;
375 [label="gini = 0.0\nsamples = 30\nvalue = [0, 0, 30]\nclass = High", fillcolor="#8139e5"] ;
363 -> 375 ;
376 [label="size_XXL <= 0.5\ngini = 0.469\nsamples = 32\nvalue = [20, 0, 12]\nclass = Low", fillcolor="#f5cdb0"] ;
362 -> 376 ;
377 [label="gini = 0.0\nsamples = 20\nvalue = [20, 0, 0]\nclass = Low", fillcolor="#e58139"] ;
376 -> 377 ;
378 [label="gini = 0.0\nsamples = 12\nvalue = [0, 0, 12]\nclass = High", fillcolor="#8139e5"] ;
376 -> 378 ;
379 [label="gini = 0.0\nsamples = 20\nvalue = [0, 0, 20]\nclass = High", fillcolor="#8139e5"] ;
361 -> 379 ;
380 [label="color_navy <= 0.5\ngini = 0.216\nsamples = 81\nvalue = [0, 10, 71]\nclass = High", fillcolor="#9355e9"] ;
360 -> 380 ;
381 [label="color_blue <= 0.5\ngini = 0.267\nsamples = 63\nvalue = [0, 10, 53]\nclass = High", fillcolor="#995eea"] ;
380 -> 381 ;
382 [label="color_white <= 0.5\ngini = 0.306\nsamples = 53\nvalue = [0, 10, 43]\nclass = High", fillcolor="#9e67eb"] ;
381 -> 382 ;
383 [label="gini = 0.0\nsamples = 37\nvalue = [0, 0, 37]\nclass = High", fillcolor="#8139e5"] ;
382 -> 383 ;
384 [label="gini = 0.469\nsamples = 16\nvalue = [0, 10, 6]\nclass = Medium", fillcolor="#b0f5cd"] ;
382 -> 384 ;
385 [label="gini = 0.0\nsamples = 10\nvalue = [0, 0, 10]\nclass = High", fillcolor="#8139e5"] ;
381 -> 385 ;
386 [label="gini = 0.0\nsamples = 18\nvalue = [0, 0, 18]\nclass = High", fillcolor="#8139e5"] ;
380 -> 386 ;
387 [label="gini = 0.0\nsamples = 39\nvalue = [0, 0, 39]\nclass = High", fillcolor="#8139e5"] ;
359 -> 387 ;
388 [label="color_yellow <= 0.5\ngini = 0.021\nsamples = 190\nvalue = [188, 0, 2]\nclass = Low", fillcolor="#e5823b"] ;
358 -> 388 ;
389 [label="color_orange <= 0.5\ngini = 0.022\nsamples = 176\nvalue = [174, 0, 2]\nclass = Low", fillcolor="#e5823b"] ;
388 -> 389 ;
390 [label="color_white <= 0.5\ngini = 0.026\nsamples = 151\nvalue = [149, 0, 2]\nclass = Low", fillcolor="#e5833c"] ;
389 -> 390 ;
391 [label="color_violet <= 0.5\ngini = 0.038\nsamples = 102\nvalue = [100, 0, 2]\nclass = Low", fillcolor="#e6843d"] ;
390 -> 391 ;
392 [label="color_red <= 0.5\ngini = 0.047\nsamples = 83\nvalue = [81, 0, 2]\nclass = Low", fillcolor="#e6843e"] ;
391 -> 392 ;
393 [label="color_green <= 0.5\ngini = 0.061\nsamples = 63\nvalue = [61, 0, 2]\nclass = Low", fillcolor="#e6853f"] ;
392 -> 393 ;
394 [label="gini = 0.0\nsamples = 49\nvalue = [49, 0, 0]\nclass = Low", fillcolor="#e58139"] ;
393 -> 394 ;
395 [label="gini = 0.245\nsamples = 14\nvalue = [12, 0, 2]\nclass = Low", fillcolor="#e9965a"] ;
393 -> 395 ;
396 [label="gini = 0.0\nsamples = 20\nvalue = [20, 0, 0]\nclass = Low", fillcolor="#e58139"] ;
392 -> 396 ;
397 [label="gini = 0.0\nsamples = 19\nvalue = [19, 0, 0]\nclass = Low", fillcolor="#e58139"] ;
391 -> 397 ;
398 [label="gini = 0.0\nsamples = 49\nvalue = [49, 0, 0]\nclass = Low", fillcolor="#e58139"] ;
390 -> 398 ;
399 [label="gini = 0.0\nsamples = 25\nvalue = [25, 0, 0]\nclass = Low", fillcolor="#e58139"] ;
389 -> 399 ;
400 [label="gini = 0.0\nsamples = 14\nvalue = [14, 0, 0]\nclass = Low", fillcolor="#e58139"] ;
388 -> 400 ;
401 [label="size_XXL <= 0.5\ngini = 0.349\nsamples = 102\nvalue = [79, 0, 23]\nclass = Low", fillcolor="#eda673"] ;
357 -> 401 ;
402 [label="size_L <= 0.5\ngini = 0.295\nsamples = 78\nvalue = [64, 0, 14]\nclass = Low", fillcolor="#eb9d64"] ;
401 -> 402 ;
403 [label="size_3XL <= 0.5\ngini = 0.429\nsamples = 45\nvalue = [31, 0, 14]\nclass = Low", fillcolor="#f1ba92"] ;
402 -> 403 ;
404 [label="gini = 0.0\nsamples = 31\nvalue = [31, 0, 0]\nclass = Low", fillcolor="#e58139"] ;
403 -> 404 ;
405 [label="gini = 0.0\nsamples = 14\nvalue = [0, 0, 14]\nclass = High", fillcolor="#8139e5"] ;
403 -> 405 ;
406 [label="gini = 0.0\nsamples = 33\nvalue = [33, 0, 0]\nclass = Low", fillcolor="#e58139"] ;
402 -> 406 ;
407 [label="gini = 0.469\nsamples = 24\nvalue = [15, 0, 9]\nclass = Low", fillcolor="#f5cdb0"] ;
401 -> 407 ;
408 [label="gini = 0.0\nsamples = 153\nvalue = [153, 0, 0]\nclass = Low", fillcolor="#e58139"] ;
356 -> 408 ;
409 [label="material_nylon <= 0.5\ngini = 0.373\nsamples = 1091\nvalue = [198, 54, 839]\nclass = High", fillcolor="#a571ec"] ;
207 -> 409 ;
410 [label="color_yellow <= 0.5\ngini = 0.485\nsamples = 749\nvalue = [198, 54, 497]\nclass = High", fillcolor="#bb94f1"] ;
409 -> 410 ;
411 [label="color_orange <= 0.5\ngini = 0.49\nsamples = 686\nvalue = [198, 42, 446]\nclass = High", fillcolor="#bf9af2"] ;
410 -> 411 ;
412 [label="color_green <= 0.5\ngini = 0.483\nsamples = 637\nvalue = [198, 27, 412]\nclass = High", fillcolor="#c29ef2"] ;
411 -> 412 ;
413 [label="color_white <= 0.5\ngini = 0.458\nsamples = 587\nvalue = [198, 5, 384]\nclass = High", fillcolor="#c3a0f3"] ;
412 -> 413 ;
414 [label="material_linen <= 0.5\ngini = 0.376\nsamples = 443\nvalue = [104, 5, 334]\nclass = High", fillcolor="#aa79ed"] ;
413 -> 414 ;
415 [label="material_polyester <= 0.5\ngini = 0.03\nsamples = 326\nvalue = [0, 5, 321]\nclass = High", fillcolor="#833ce5"] ;
414 -> 415 ;
416 [label="color_red <= 0.5\ngini = 0.071\nsamples = 136\nvalue = [0, 5, 131]\nclass = High", fillcolor="#8641e6"] ;
415 -> 416 ;
417 [label="color_navy <= 0.5\ngini = 0.088\nsamples = 108\nvalue = [0, 5, 103]\nclass = High", fillcolor="#8743e6"] ;
416 -> 417 ;
418 [label="color_blue <= 0.5\ngini = 0.134\nsamples = 69\nvalue = [0, 5, 64]\nclass = High", fillcolor="#8b48e7"] ;
417 -> 418 ;
419 [label="color_cream <= 0.5\ngini = 0.198\nsamples = 45\nvalue = [0, 5, 40]\nclass = High", fillcolor="#9152e8"] ;
418 -> 419 ;
420 [label="gini = 0.444\nsamples = 15\nvalue = [0, 5, 10]\nclass = High", fillcolor="#c09cf2"] ;
419 -> 420 ;
421 [label="gini = 0.0\nsamples = 30\nvalue = [0, 0, 30]\nclass = High", fillcolor="#8139e5"] ;
419 -> 421 ;
422 [label="gini = 0.0\nsamples = 24\nvalue = [0, 0, 24]\nclass = High", fillcolor="#8139e5"] ;
418 -> 422 ;
423 [label="gini = 0.0\nsamples = 39\nvalue = [0, 0, 39]\nclass = High", fillcolor="#8139e5"] ;
417 -> 423 ;
424 [label="gini = 0.0\nsamples = 28\nvalue = [0, 0, 28]\nclass = High", fillcolor="#8139e5"] ;
416 -> 424 ;
425 [label="gini = 0.0\nsamples = 190\nvalue = [0, 0, 190]\nclass = High", fillcolor="#8139e5"] ;
415 -> 425 ;
426 [label="color_blue <= 0.5\ngini = 0.198\nsamples = 117\nvalue = [104, 0, 13]\nclass = Low", fillcolor="#e89152"] ;
414 -> 426 ;
427 [label="color_cream <= 0.5\ngini = 0.236\nsamples = 95\nvalue = [82, 0, 13]\nclass = Low", fillcolor="#e99558"] ;
426 -> 427 ;
428 [label="color_red <= 0.5\ngini = 0.309\nsamples = 68\nvalue = [55, 0, 13]\nclass = Low", fillcolor="#eb9f68"] ;
427 -> 428 ;
429 [label="color_violet <= 0.5\ngini = 0.427\nsamples = 42\nvalue = [29, 0, 13]\nclass = Low", fillcolor="#f1b992"] ;
428 -> 429 ;
430 [label="gini = 0.0\nsamples = 29\nvalue = [29, 0, 0]\nclass = Low", fillcolor="#e58139"] ;
429 -> 430 ;
431 [label="gini = 0.0\nsamples = 13\nvalue = [0, 0, 13]\nclass = High", fillcolor="#8139e5"] ;
429 -> 431 ;
432 [label="gini = 0.0\nsamples = 26\nvalue = [26, 0, 0]\nclass = Low", fillcolor="#e58139"] ;
428 -> 432 ;
433 [label="gini = 0.0\nsamples = 27\nvalue = [27, 0, 0]\nclass = Low", fillcolor="#e58139"] ;
427 -> 433 ;
434 [label="gini = 0.0\nsamples = 22\nvalue = [22, 0, 0]\nclass = Low", fillcolor="#e58139"] ;
426 -> 434 ;
435 [label="material_polyester <= 0.5\ngini = 0.453\nsamples = 144\nvalue = [94, 0, 50]\nclass = Low", fillcolor="#f3c4a2"] ;
413 -> 435 ;
436 [label="gini = 0.0\nsamples = 94\nvalue = [94, 0, 0]\nclass = Low", fillcolor="#e58139"] ;
435 -> 436 ;
437 [label="gini = 0.0\nsamples = 50\nvalue = [0, 0, 50]\nclass = High", fillcolor="#8139e5"] ;
435 -> 437 ;
438 [label="material_linen <= 0.5\ngini = 0.493\nsamples = 50\nvalue = [0, 22, 28]\nclass = High", fillcolor="#e4d5f9"] ;
412 -> 438 ;
439 [label="material_cotton <= 0.5\ngini = 0.497\nsamples = 41\nvalue = [0, 22, 19]\nclass = Medium", fillcolor="#e4fbee"] ;
438 -> 439 ;
440 [label="gini = 0.0\nsamples = 19\nvalue = [0, 0, 19]\nclass = High", fillcolor="#8139e5"] ;
439 -> 440 ;
441 [label="gini = 0.0\nsamples = 22\nvalue = [0, 22, 0]\nclass = Medium", fillcolor="#39e581"] ;
439 -> 441 ;
442 [label="gini = 0.0\nsamples = 9\nvalue = [0, 0, 9]\nclass = High", fillcolor="#8139e5"] ;
438 -> 442 ;
443 [label="material_linen <= 0.5\ngini = 0.425\nsamples = 49\nvalue = [0, 15, 34]\nclass = High", fillcolor="#b990f0"] ;
411 -> 443 ;
444 [label="material_polyester <= 0.5\ngini = 0.469\nsamples = 40\nvalue = [0, 15, 25]\nclass = High", fillcolor="#cdb0f5"] ;
443 -> 444 ;
445 [label="gini = 0.454\nsamples = 23\nvalue = [0, 15, 8]\nclass = Medium", fillcolor="#a3f3c4"] ;
444 -> 445 ;
446 [label="gini = 0.0\nsamples = 17\nvalue = [0, 0, 17]\nclass = High", fillcolor="#8139e5"] ;
444 -> 446 ;
447 [label="gini = 0.0\nsamples = 9\nvalue = [0, 0, 9]\nclass = High", fillcolor="#8139e5"] ;
443 -> 447 ;
448 [label="material_cotton <= 0.5\ngini = 0.308\nsamples = 63\nvalue = [0, 12, 51]\nclass = High", fillcolor="#9f68eb"] ;
410 -> 448 ;
449 [label="gini = 0.0\nsamples = 46\nvalue = [0, 0, 46]\nclass = High", fillcolor="#8139e5"] ;
448 -> 449 ;
450 [label="gini = 0.415\nsamples = 17\nvalue = [0, 12, 5]\nclass = Medium", fillcolor="#8bf0b5"] ;
448 -> 450 ;
451 [label="gini = 0.0\nsamples = 342\nvalue = [0, 0, 342]\nclass = High", fillcolor="#8139e5"] ;
409 -> 451 ;
452 [label="size_XL <= 0.5\ngini = 0.323\nsamples = 351\nvalue = [0, 280, 71]\nclass = Medium", fillcolor="#6beca1"] ;
206 -> 452 ;
453 [label="size_3XL <= 0.5\ngini = 0.371\nsamples = 289\nvalue = [0, 218, 71]\nclass = Medium", fillcolor="#79edaa"] ;
452 -> 453 ;
454 [label="size_L <= 0.5\ngini = 0.402\nsamples = 255\nvalue = [0, 184, 71]\nclass = Medium", fillcolor="#85efb2"] ;
453 -> 454 ;
455 [label="color_white <= 0.5\ngini = 0.433\nsamples = 170\nvalue = [0, 116, 54]\nclass = Medium", fillcolor="#95f1bc"] ;
454 -> 455 ;
456 [label="size_XXL <= 0.5\ngini = 0.446\nsamples = 131\nvalue = [0, 87, 44]\nclass = Medium", fillcolor="#9df2c1"] ;
455 -> 456 ;
457 [label="color_yellow <= 0.5\ngini = 0.492\nsamples = 101\nvalue = [0, 57, 44]\nclass = Medium", fillcolor="#d2f9e2"] ;
456 -> 457 ;
458 [label="color_navy <= 0.5\ngini = 0.479\nsamples = 93\nvalue = [0, 56, 37]\nclass = Medium", fillcolor="#bcf6d4"] ;
457 -> 458 ;
459 [label="color_blue <= 0.5\ngini = 0.462\nsamples = 69\nvalue = [0, 44, 25]\nclass = Medium", fillcolor="#aaf4c9"] ;
458 -> 459 ;
460 [label="color_cream <= 0.5\ngini = 0.456\nsamples = 54\nvalue = [0, 35, 19]\nclass = Medium", fillcolor="#a4f3c5"] ;
459 -> 460 ;
461 [label="color_orange <= 0.5\ngini = 0.432\nsamples = 38\nvalue = [0, 26, 12]\nclass = Medium", fillcolor="#94f1bb"] ;
460 -> 461 ;
462 [label="size_M <= 0.5\ngini = 0.437\nsamples = 31\nvalue = [0, 21, 10]\nclass = Medium", fillcolor="#97f1bd"] ;
461 -> 462 ;
463 [label="gini = 0.0\nsamples = 10\nvalue = [0, 0, 10]\nclass = High", fillcolor="#8139e5"] ;
462 -> 463 ;
464 [label="gini = 0.0\nsamples = 21\nvalue = [0, 21, 0]\nclass = Medium", fillcolor="#39e581"] ;
462 -> 464 ;
465 [label="size_S <= 0.5\ngini = 0.408\nsamples = 7\nvalue = [0, 5, 2]\nclass = Medium", fillcolor="#88efb3"] ;
461 -> 465 ;
466 [label="gini = 0.0\nsamples = 5\nvalue = [0, 5, 0]\nclass = Medium", fillcolor="#39e581"] ;
465 -> 466 ;
467 [label="gini = 0.0\nsamples = 2\nvalue = [0, 0, 2]\nclass = High", fillcolor="#8139e5"] ;
465 -> 467 ;
468 [label="size_M <= 0.5\ngini = 0.492\nsamples = 16\nvalue = [0, 9, 7]\nclass = Medium", fillcolor="#d3f9e3"] ;
460 -> 468 ;
469 [label="gini = 0.0\nsamples = 7\nvalue = [0, 0, 7]\nclass = High", fillcolor="#8139e5"] ;
468 -> 469 ;
470 [label="gini = 0.0\nsamples = 9\nvalue = [0, 9, 0]\nclass = Medium", fillcolor="#39e581"] ;
468 -> 470 ;
471 [label="size_S <= 0.5\ngini = 0.48\nsamples = 15\nvalue = [0, 9, 6]\nclass = Medium", fillcolor="#bdf6d5"] ;
459 -> 471 ;
472 [label="gini = 0.0\nsamples = 9\nvalue = [0, 9, 0]\nclass = Medium", fillcolor="#39e581"] ;
471 -> 472 ;
473 [label="gini = 0.0\nsamples = 6\nvalue = [0, 0, 6]\nclass = High", fillcolor="#8139e5"] ;
471 -> 473 ;
474 [label="size_M <= 0.5\ngini = 0.5\nsamples = 24\nvalue = [0, 12, 12]\nclass = Medium", fillcolor="#ffffff"] ;
458 -> 474 ;
475 [label="gini = 0.0\nsamples = 12\nvalue = [0, 0, 12]\nclass = High", fillcolor="#8139e5"] ;
474 -> 475 ;
476 [label="gini = 0.0\nsamples = 12\nvalue = [0, 12, 0]\nclass = Medium", fillcolor="#39e581"] ;
474 -> 476 ;
477 [label="gini = 0.219\nsamples = 8\nvalue = [0, 1, 7]\nclass = High", fillcolor="#9355e9"] ;
457 -> 477 ;
478 [label="gini = 0.0\nsamples = 30\nvalue = [0, 30, 0]\nclass = Medium", fillcolor="#39e581"] ;
456 -> 478 ;
479 [label="size_M <= 0.5\ngini = 0.381\nsamples = 39\nvalue = [0, 29, 10]\nclass = Medium", fillcolor="#7deeac"] ;
455 -> 479 ;
480 [label="gini = 0.0\nsamples = 21\nvalue = [0, 21, 0]\nclass = Medium", fillcolor="#39e581"] ;
479 -> 480 ;
481 [label="gini = 0.494\nsamples = 18\nvalue = [0, 8, 10]\nclass = High", fillcolor="#e6d7fa"] ;
479 -> 481 ;
482 [label="color_cream <= 0.5\ngini = 0.32\nsamples = 85\nvalue = [0, 68, 17]\nclass = Medium", fillcolor="#6aeca0"] ;
454 -> 482 ;
483 [label="color_white <= 0.5\ngini = 0.341\nsamples = 78\nvalue = [0, 61, 17]\nclass = Medium", fillcolor="#70eca4"] ;
482 -> 483 ;
484 [label="gini = 0.0\nsamples = 61\nvalue = [0, 61, 0]\nclass = Medium", fillcolor="#39e581"] ;
483 -> 484 ;
485 [label="gini = 0.0\nsamples = 17\nvalue = [0, 0, 17]\nclass = High", fillcolor="#8139e5"] ;
483 -> 485 ;
486 [label="gini = 0.0\nsamples = 7\nvalue = [0, 7, 0]\nclass = Medium", fillcolor="#39e581"] ;
482 -> 486 ;
487 [label="gini = 0.0\nsamples = 34\nvalue = [0, 34, 0]\nclass = Medium", fillcolor="#39e581"] ;
453 -> 487 ;
488 [label="gini = 0.0\nsamples = 62\nvalue = [0, 62, 0]\nclass = Medium", fillcolor="#39e581"] ;
452 -> 488 ;
489 [label="color_green <= 0.5\ngini = 0.454\nsamples = 1180\nvalue = [795, 28, 357]\nclass = Low", fillcolor="#f1bc96"] ;
1 -> 489 ;
490 [label="color_white <= 0.5\ngini = 0.448\nsamples = 1105\nvalue = [752, 25, 328]\nclass = Low", fillcolor="#f1ba93"] ;
489 -> 490 ;
491 [label="sleeves_short <= 0.5\ngini = 0.367\nsamples = 870\nvalue = [664, 10, 196]\nclass = Low", fillcolor="#eda876"] ;
490 -> 491 ;
492 [label="color_yellow <= 0.5\ngini = 0.493\nsamples = 428\nvalue = [251, 4, 173]\nclass = Low", fillcolor="#f7d8c2"] ;
491 -> 492 ;
493 [label="color_violet <= 0.5\ngini = 0.452\nsamples = 377\nvalue = [247, 0, 130]\nclass = Low", fillcolor="#f3c3a1"] ;
492 -> 493 ;
494 [label="material_silk <= 0.5\ngini = 0.397\nsamples = 330\nvalue = [240, 0, 90]\nclass = Low", fillcolor="#efb083"] ;
493 -> 494 ;
495 [label="material_cotton <= 0.5\ngini = 0.355\nsamples = 312\nvalue = [240, 0, 72]\nclass = Low", fillcolor="#eda774"] ;
494 -> 495 ;
496 [label="material_linen <= 0.5\ngini = 0.191\nsamples = 252\nvalue = [225, 0, 27]\nclass = Low", fillcolor="#e89051"] ;
495 -> 496 ;
497 [label="color_cream <= 0.5\ngini = 0.232\nsamples = 202\nvalue = [175, 0, 27]\nclass = Low", fillcolor="#e99458"] ;
496 -> 497 ;
498 [label="color_navy <= 0.5\ngini = 0.295\nsamples = 150\nvalue = [123, 0, 27]\nclass = Low", fillcolor="#eb9d64"] ;
497 -> 498 ;
499 [label="material_nylon <= 0.5\ngini = 0.399\nsamples = 98\nvalue = [71, 0, 27]\nclass = Low", fillcolor="#efb184"] ;
498 -> 499 ;
500 [label="color_orange <= 0.5\ngini = 0.381\nsamples = 43\nvalue = [32, 0, 11]\nclass = Low", fillcolor="#eeac7d"] ;
499 -> 500 ;
501 [label="gini = 0.0\nsamples = 32\nvalue = [32, 0, 0]\nclass = Low", fillcolor="#e58139"] ;
500 -> 501 ;
502 [label="gini = 0.0\nsamples = 11\nvalue = [0, 0, 11]\nclass = High", fillcolor="#8139e5"] ;
500 -> 502 ;
503 [label="color_red <= 0.5\ngini = 0.413\nsamples = 55\nvalue = [39, 0, 16]\nclass = Low", fillcolor="#f0b58a"] ;
499 -> 503 ;
504 [label="color_blue <= 0.5\ngini = 0.5\nsamples = 33\nvalue = [17, 0, 16]\nclass = Low", fillcolor="#fdf8f3"] ;
503 -> 504 ;
505 [label="gini = 0.0\nsamples = 16\nvalue = [0, 0, 16]\nclass = High", fillcolor="#8139e5"] ;
504 -> 505 ;
506 [label="gini = 0.0\nsamples = 17\nvalue = [17, 0, 0]\nclass = Low", fillcolor="#e58139"] ;
504 -> 506 ;
507 [label="gini = 0.0\nsamples = 22\nvalue = [22, 0, 0]\nclass = Low", fillcolor="#e58139"] ;
503 -> 507 ;
508 [label="gini = 0.0\nsamples = 52\nvalue = [52, 0, 0]\nclass = Low", fillcolor="#e58139"] ;
498 -> 508 ;
509 [label="gini = 0.0\nsamples = 52\nvalue = [52, 0, 0]\nclass = Low", fillcolor="#e58139"] ;
497 -> 509 ;
510 [label="gini = 0.0\nsamples = 50\nvalue = [50, 0, 0]\nclass = Low", fillcolor="#e58139"] ;
496 -> 510 ;
511 [label="color_blue <= 0.5\ngini = 0.375\nsamples = 60\nvalue = [15, 0, 45]\nclass = High", fillcolor="#ab7bee"] ;
495 -> 511 ;
512 [label="color_cream <= 0.5\ngini = 0.415\nsamples = 51\nvalue = [15, 0, 36]\nclass = High", fillcolor="#b58bf0"] ;
511 -> 512 ;
513 [label="color_navy <= 0.5\ngini = 0.298\nsamples = 33\nvalue = [6, 0, 27]\nclass = High", fillcolor="#9d65eb"] ;
512 -> 513 ;
514 [label="gini = 0.0\nsamples = 19\nvalue = [0, 0, 19]\nclass = High", fillcolor="#8139e5"] ;
513 -> 514 ;
515 [label="gini = 0.49\nsamples = 14\nvalue = [6, 0, 8]\nclass = High", fillcolor="#e0cef8"] ;
513 -> 515 ;
516 [label="gini = 0.5\nsamples = 18\nvalue = [9, 0, 9]\nclass = Low", fillcolor="#ffffff"] ;
512 -> 516 ;
517 [label="gini = 0.0\nsamples = 9\nvalue = [0, 0, 9]\nclass = High", fillcolor="#8139e5"] ;
511 -> 517 ;
518 [label="gini = 0.0\nsamples = 18\nvalue = [0, 0, 18]\nclass = High", fillcolor="#8139e5"] ;
494 -> 518 ;
519 [label="material_polyester <= 0.5\ngini = 0.254\nsamples = 47\nvalue = [7, 0, 40]\nclass = High", fillcolor="#975cea"] ;
493 -> 519 ;
520 [label="material_linen <= 0.5\ngini = 0.32\nsamples = 35\nvalue = [7, 0, 28]\nclass = High", fillcolor="#a06aec"] ;
519 -> 520 ;
521 [label="gini = 0.0\nsamples = 28\nvalue = [0, 0, 28]\nclass = High", fillcolor="#8139e5"] ;
520 -> 521 ;
522 [label="gini = 0.0\nsamples = 7\nvalue = [7, 0, 0]\nclass = Low", fillcolor="#e58139"] ;
520 -> 522 ;
523 [label="gini = 0.0\nsamples = 12\nvalue = [0, 0, 12]\nclass = High", fillcolor="#8139e5"] ;
519 -> 523 ;
524 [label="material_silk <= 0.5\ngini = 0.277\nsamples = 51\nvalue = [4, 4, 43]\nclass = High", fillcolor="#965be9"] ;
492 -> 524 ;
525 [label="material_linen <= 0.5\ngini = 0.159\nsamples = 46\nvalue = [4, 0, 42]\nclass = High", fillcolor="#8d4ce7"] ;
524 -> 525 ;
526 [label="gini = 0.0\nsamples = 42\nvalue = [0, 0, 42]\nclass = High", fillcolor="#8139e5"] ;
525 -> 526 ;
527 [label="gini = 0.0\nsamples = 4\nvalue = [4, 0, 0]\nclass = Low", fillcolor="#e58139"] ;
525 -> 527 ;
528 [label="gini = 0.32\nsamples = 5\nvalue = [0, 4, 1]\nclass = Medium", fillcolor="#6aeca0"] ;
524 -> 528 ;
529 [label="color_blue <= 0.5\ngini = 0.124\nsamples = 442\nvalue = [413, 6, 23]\nclass = Low", fillcolor="#e78a47"] ;
491 -> 529 ;
530 [label="color_violet <= 0.5\ngini = 0.119\nsamples = 382\nvalue = [358, 6, 18]\nclass = Low", fillcolor="#e78946"] ;
529 -> 530 ;
531 [label="color_orange <= 0.5\ngini = 0.115\nsamples = 329\nvalue = [309, 4, 16]\nclass = Low", fillcolor="#e78946"] ;
530 -> 531 ;
532 [label="material_cotton <= 0.5\ngini = 0.107\nsamples = 282\nvalue = [266, 1, 15]\nclass = Low", fillcolor="#e78945"] ;
531 -> 532 ;
533 [label="color_red <= 0.5\ngini = 0.134\nsamples = 223\nvalue = [207, 1, 15]\nclass = Low", fillcolor="#e78b48"] ;
532 -> 533 ;
534 [label="material_polyester <= 0.5\ngini = 0.134\nsamples = 167\nvalue = [155, 1, 11]\nclass = Low", fillcolor="#e78b48"] ;
533 -> 534 ;
535 [label="material_linen <= 0.5\ngini = 0.213\nsamples = 100\nvalue = [88, 1, 11]\nclass = Low", fillcolor="#e99254"] ;
534 -> 535 ;
536 [label="material_nylon <= 0.5\ngini = 0.292\nsamples = 69\nvalue = [57, 1, 11]\nclass = Low", fillcolor="#ea9b62"] ;
535 -> 536 ;
537 [label="color_navy <= 0.5\ngini = 0.153\nsamples = 12\nvalue = [0, 1, 11]\nclass = High", fillcolor="#8c4be7"] ;
536 -> 537 ;
538 [label="gini = 0.32\nsamples = 5\nvalue = [0, 1, 4]\nclass = High", fillcolor="#a06aec"] ;
537 -> 538 ;
539 [label="gini = 0.0\nsamples = 7\nvalue = [0, 0, 7]\nclass = High", fillcolor="#8139e5"] ;
537 -> 539 ;
540 [label="gini = 0.0\nsamples = 57\nvalue = [57, 0, 0]\nclass = Low", fillcolor="#e58139"] ;
536 -> 540 ;
541 [label="gini = 0.0\nsamples = 31\nvalue = [31, 0, 0]\nclass = Low", fillcolor="#e58139"] ;
535 -> 541 ;
542 [label="gini = 0.0\nsamples = 67\nvalue = [67, 0, 0]\nclass = Low", fillcolor="#e58139"] ;
534 -> 542 ;
543 [label="material_polyester <= 0.5\ngini = 0.133\nsamples = 56\nvalue = [52, 0, 4]\nclass = Low", fillcolor="#e78b48"] ;
533 -> 543 ;
544 [label="material_silk <= 0.5\ngini = 0.238\nsamples = 29\nvalue = [25, 0, 4]\nclass = Low", fillcolor="#e99559"] ;
543 -> 544 ;
545 [label="gini = 0.0\nsamples = 25\nvalue = [25, 0, 0]\nclass = Low", fillcolor="#e58139"] ;
544 -> 545 ;
546 [label="gini = 0.0\nsamples = 4\nvalue = [0, 0, 4]\nclass = High", fillcolor="#8139e5"] ;
544 -> 546 ;
547 [label="gini = 0.0\nsamples = 27\nvalue = [27, 0, 0]\nclass = Low", fillcolor="#e58139"] ;
543 -> 547 ;
548 [label="gini = 0.0\nsamples = 59\nvalue = [59, 0, 0]\nclass = Low", fillcolor="#e58139"] ;
532 -> 548 ;
549 [label="material_polyester <= 0.5\ngini = 0.158\nsamples = 47\nvalue = [43, 3, 1]\nclass = Low", fillcolor="#e78c4b"] ;
531 -> 549 ;
550 [label="material_nylon <= 0.5\ngini = 0.202\nsamples = 36\nvalue = [32, 3, 1]\nclass = Low", fillcolor="#e89051"] ;
549 -> 550 ;
551 [label="material_linen <= 0.5\ngini = 0.278\nsamples = 25\nvalue = [21, 3, 1]\nclass = Low", fillcolor="#ea985d"] ;
550 -> 551 ;
552 [label="material_silk <= 0.5\ngini = 0.398\nsamples = 16\nvalue = [12, 3, 1]\nclass = Low", fillcolor="#eda876"] ;
551 -> 552 ;
553 [label="gini = 0.0\nsamples = 12\nvalue = [12, 0, 0]\nclass = Low", fillcolor="#e58139"] ;
552 -> 553 ;
554 [label="gini = 0.375\nsamples = 4\nvalue = [0, 3, 1]\nclass = Medium", fillcolor="#7beeab"] ;
552 -> 554 ;
555 [label="gini = 0.0\nsamples = 9\nvalue = [9, 0, 0]\nclass = Low", fillcolor="#e58139"] ;
551 -> 555 ;
556 [label="gini = 0.0\nsamples = 11\nvalue = [11, 0, 0]\nclass = Low", fillcolor="#e58139"] ;
550 -> 556 ;
557 [label="gini = 0.0\nsamples = 11\nvalue = [11, 0, 0]\nclass = Low", fillcolor="#e58139"] ;
549 -> 557 ;
558 [label="material_linen <= 0.5\ngini = 0.142\nsamples = 53\nvalue = [49, 2, 2]\nclass = Low", fillcolor="#e78b49"] ;
530 -> 558 ;
559 [label="material_polyester <= 0.5\ngini = 0.169\nsamples = 44\nvalue = [40, 2, 2]\nclass = Low", fillcolor="#e78d4c"] ;
558 -> 559 ;
560 [label="material_silk <= 0.5\ngini = 0.263\nsamples = 27\nvalue = [23, 2, 2]\nclass = Low", fillcolor="#e99559"] ;
559 -> 560 ;
561 [label="gini = 0.0\nsamples = 23\nvalue = [23, 0, 0]\nclass = Low", fillcolor="#e58139"] ;
560 -> 561 ;
562 [label="gini = 0.5\nsamples = 4\nvalue = [0, 2, 2]\nclass = Medium", fillcolor="#ffffff"] ;
560 -> 562 ;
563 [label="gini = 0.0\nsamples = 17\nvalue = [17, 0, 0]\nclass = Low", fillcolor="#e58139"] ;
559 -> 563 ;
564 [label="gini = 0.0\nsamples = 9\nvalue = [9, 0, 0]\nclass = Low", fillcolor="#e58139"] ;
558 -> 564 ;
565 [label="material_polyester <= 0.5\ngini = 0.153\nsamples = 60\nvalue = [55, 0, 5]\nclass = Low", fillcolor="#e78c4b"] ;
529 -> 565 ;
566 [label="material_nylon <= 0.5\ngini = 0.234\nsamples = 37\nvalue = [32, 0, 5]\nclass = Low", fillcolor="#e99558"] ;
565 -> 566 ;
567 [label="material_linen <= 0.5\ngini = 0.34\nsamples = 23\nvalue = [18, 0, 5]\nclass = Low", fillcolor="#eca470"] ;
566 -> 567 ;
568 [label="material_cotton <= 0.5\ngini = 0.43\nsamples = 16\nvalue = [11, 0, 5]\nclass = Low", fillcolor="#f1ba93"] ;
567 -> 568 ;
569 [label="gini = 0.0\nsamples = 5\nvalue = [0, 0, 5]\nclass = High", fillcolor="#8139e5"] ;
568 -> 569 ;
570 [label="gini = 0.0\nsamples = 11\nvalue = [11, 0, 0]\nclass = Low", fillcolor="#e58139"] ;
568 -> 570 ;
571 [label="gini = 0.0\nsamples = 7\nvalue = [7, 0, 0]\nclass = Low", fillcolor="#e58139"] ;
567 -> 571 ;
572 [label="gini = 0.0\nsamples = 14\nvalue = [14, 0, 0]\nclass = Low", fillcolor="#e58139"] ;
566 -> 572 ;
573 [label="gini = 0.0\nsamples = 23\nvalue = [23, 0, 0]\nclass = Low", fillcolor="#e58139"] ;
565 -> 573 ;
574 [label="material_nylon <= 0.5\ngini = 0.54\nsamples = 235\nvalue = [88, 15, 132]\nclass = High", fillcolor="#d9c4f7"] ;
490 -> 574 ;
575 [label="material_linen <= 0.5\ngini = 0.571\nsamples = 176\nvalue = [88, 15, 73]\nclass = Low", fillcolor="#fbede2"] ;
574 -> 575 ;
576 [label="material_polyester <= 0.5\ngini = 0.573\nsamples = 134\nvalue = [46, 15, 73]\nclass = High", fillcolor="#d8c2f7"] ;
575 -> 576 ;
577 [label="sleeves_short <= 0.5\ngini = 0.371\nsamples = 61\nvalue = [46, 15, 0]\nclass = Low", fillcolor="#edaa7a"] ;
576 -> 577 ;
578 [label="material_silk <= 0.5\ngini = 0.391\nsamples = 30\nvalue = [22, 8, 0]\nclass = Low", fillcolor="#eeaf81"] ;
577 -> 578 ;
579 [label="gini = 0.0\nsamples = 22\nvalue = [22, 0, 0]\nclass = Low", fillcolor="#e58139"] ;
578 -> 579 ;
580 [label="gini = 0.0\nsamples = 8\nvalue = [0, 8, 0]\nclass = Medium", fillcolor="#39e581"] ;
578 -> 580 ;
581 [label="material_silk <= 0.5\ngini = 0.35\nsamples = 31\nvalue = [24, 7, 0]\nclass = Low", fillcolor="#eda673"] ;
577 -> 581 ;
582 [label="gini = 0.0\nsamples = 24\nvalue = [24, 0, 0]\nclass = Low", fillcolor="#e58139"] ;
581 -> 582 ;
583 [label="gini = 0.0\nsamples = 7\nvalue = [0, 7, 0]\nclass = Medium", fillcolor="#39e581"] ;
581 -> 583 ;
584 [label="gini = 0.0\nsamples = 73\nvalue = [0, 0, 73]\nclass = High", fillcolor="#8139e5"] ;
576 -> 584 ;
585 [label="gini = 0.0\nsamples = 42\nvalue = [42, 0, 0]\nclass = Low", fillcolor="#e58139"] ;
575 -> 585 ;
586 [label="gini = 0.0\nsamples = 59\nvalue = [0, 0, 59]\nclass = High", fillcolor="#8139e5"] ;
574 -> 586 ;
587 [label="sleeves_long <= 0.5\ngini = 0.52\nsamples = 75\nvalue = [43, 3, 29]\nclass = Low", fillcolor="#f7d9c3"] ;
489 -> 587 ;
588 [label="gini = 0.056\nsamples = 35\nvalue = [34, 1, 0]\nclass = Low", fillcolor="#e6853f"] ;
587 -> 588 ;
589 [label="material_cotton <= 0.5\ngini = 0.421\nsamples = 40\nvalue = [9, 2, 29]\nclass = High", fillcolor="#ae7fee"] ;
587 -> 589 ;
590 [label="material_nylon <= 0.5\ngini = 0.486\nsamples = 32\nvalue = [9, 2, 21]\nclass = High", fillcolor="#bd98f1"] ;
589 -> 590 ;
591 [label="material_silk <= 0.5\ngini = 0.559\nsamples = 24\nvalue = [9, 2, 13]\nclass = High", fillcolor="#ddcaf8"] ;
590 -> 591 ;
592 [label="material_polyester <= 0.5\ngini = 0.483\nsamples = 22\nvalue = [9, 0, 13]\nclass = High", fillcolor="#d8c2f7"] ;
591 -> 592 ;
593 [label="gini = 0.0\nsamples = 9\nvalue = [9, 0, 0]\nclass = Low", fillcolor="#e58139"] ;
592 -> 593 ;
594 [label="gini = 0.0\nsamples = 13\nvalue = [0, 0, 13]\nclass = High", fillcolor="#8139e5"] ;
592 -> 594 ;
595 [label="gini = 0.0\nsamples = 2\nvalue = [0, 2, 0]\nclass = Medium", fillcolor="#39e581"] ;
591 -> 595 ;
596 [label="gini = 0.0\nsamples = 8\nvalue = [0, 0, 8]\nclass = High", fillcolor="#8139e5"] ;
590 -> 596 ;
597 [label="gini = 0.0\nsamples = 8\nvalue = [0, 0, 8]\nclass = High", fillcolor="#8139e5"] ;
589 -> 597 ;
598 [label="material_silk <= 0.5\ngini = 0.264\nsamples = 2460\nvalue = [152, 214, 2094]\nclass = High", fillcolor="#9659e9"] ;
0 -> 598 [labeldistance=2.5, labelangle=-45, headlabel="False"] ;
599 [label="material_linen <= 0.5\ngini = 0.185\nsamples = 2308\nvalue = [152, 80, 2076]\nclass = High", fillcolor="#8f4ee8"] ;
598 -> 599 ;
600 [label="material_cotton <= 0.5\ngini = 0.147\nsamples = 1903\nvalue = [152, 0, 1751]\nclass = High", fillcolor="#8c4ae7"] ;
599 -> 600 ;
601 [label="size_L <= 0.5\ngini = 0.197\nsamples = 1376\nvalue = [152, 0, 1224]\nclass = High", fillcolor="#9152e8"] ;
600 -> 601 ;
602 [label="gini = 0.0\nsamples = 1078\nvalue = [0, 0, 1078]\nclass = High", fillcolor="#8139e5"] ;
601 -> 602 ;
603 [label="material_nylon <= 0.5\ngini = 0.5\nsamples = 298\nvalue = [152, 0, 146]\nclass = Low", fillcolor="#fefaf7"] ;
601 -> 603 ;
604 [label="sleeves_long <= 0.5\ngini = 0.5\nsamples = 155\nvalue = [77, 0, 78]\nclass = High", fillcolor="#fdfcff"] ;
603 -> 604 ;
605 [label="gini = 0.494\nsamples = 72\nvalue = [40, 0, 32]\nclass = Low", fillcolor="#fae6d7"] ;
604 -> 605 ;
606 [label="gini = 0.494\nsamples = 83\nvalue = [37, 0, 46]\nclass = High", fillcolor="#e6d8fa"] ;
604 -> 606 ;
607 [label="sleeves_short <= 0.5\ngini = 0.499\nsamples = 143\nvalue = [75, 0, 68]\nclass = Low", fillcolor="#fdf3ed"] ;
603 -> 607 ;
608 [label="gini = 0.5\nsamples = 73\nvalue = [37, 0, 36]\nclass = Low", fillcolor="#fefcfa"] ;
607 -> 608 ;
609 [label="gini = 0.496\nsamples = 70\nvalue = [38, 0, 32]\nclass = Low", fillcolor="#fbebe0"] ;
607 -> 609 ;
610 [label="gini = 0.0\nsamples = 527\nvalue = [0, 0, 527]\nclass = High", fillcolor="#8139e5"] ;
600 -> 610 ;
611 [label="size_XXL <= 0.5\ngini = 0.317\nsamples = 405\nvalue = [0, 80, 325]\nclass = High", fillcolor="#a06aeb"] ;
599 -> 611 ;
612 [label="size_3XL <= 0.5\ngini = 0.348\nsamples = 357\nvalue = [0, 80, 277]\nclass = High", fillcolor="#a572ed"] ;
611 -> 612 ;
613 [label="size_M <= 0.5\ngini = 0.181\nsamples = 308\nvalue = [0, 31, 277]\nclass = High", fillcolor="#8f4fe8"] ;
612 -> 613 ;
614 [label="size_XS <= 0.5\ngini = 0.222\nsamples = 244\nvalue = [0, 31, 213]\nclass = High", fillcolor="#9356e9"] ;
613 -> 614 ;
615 [label="gini = 0.0\nsamples = 213\nvalue = [0, 0, 213]\nclass = High", fillcolor="#8139e5"] ;
614 -> 615 ;
616 [label="gini = 0.0\nsamples = 31\nvalue = [0, 31, 0]\nclass = Medium", fillcolor="#39e581"] ;
614 -> 616 ;
617 [label="gini = 0.0\nsamples = 64\nvalue = [0, 0, 64]\nclass = High", fillcolor="#8139e5"] ;
613 -> 617 ;
618 [label="gini = 0.0\nsamples = 49\nvalue = [0, 49, 0]\nclass = Medium", fillcolor="#39e581"] ;
612 -> 618 ;
619 [label="gini = 0.0\nsamples = 48\nvalue = [0, 0, 48]\nclass = High", fillcolor="#8139e5"] ;
611 -> 619 ;
620 [label="size_XS <= 0.5\ngini = 0.209\nsamples = 152\nvalue = [0, 134, 18]\nclass = Medium", fillcolor="#54e892"] ;
598 -> 620 ;
621 [label="size_M <= 0.5\ngini = 0.242\nsamples = 128\nvalue = [0, 110, 18]\nclass = Medium", fillcolor="#59e996"] ;
620 -> 621 ;
622 [label="sleeves_short <= 0.5\ngini = 0.295\nsamples = 100\nvalue = [0, 82, 18]\nclass = Medium", fillcolor="#64eb9d"] ;
621 -> 622 ;
623 [label="size_3XL <= 0.5\ngini = 0.457\nsamples = 51\nvalue = [0, 33, 18]\nclass = Medium", fillcolor="#a5f3c6"] ;
622 -> 623 ;
624 [label="size_L <= 0.5\ngini = 0.473\nsamples = 47\nvalue = [0, 29, 18]\nclass = Medium", fillcolor="#b4f5cf"] ;
623 -> 624 ;
625 [label="gini = 0.0\nsamples = 29\nvalue = [0, 29, 0]\nclass = Medium", fillcolor="#39e581"] ;
624 -> 625 ;
626 [label="gini = 0.0\nsamples = 18\nvalue = [0, 0, 18]\nclass = High", fillcolor="#8139e5"] ;
624 -> 626 ;
627 [label="gini = 0.0\nsamples = 4\nvalue = [0, 4, 0]\nclass = Medium", fillcolor="#39e581"] ;
623 -> 627 ;
628 [label="gini = 0.0\nsamples = 49\nvalue = [0, 49, 0]\nclass = Medium", fillcolor="#39e581"] ;
622 -> 628 ;
629 [label="gini = 0.0\nsamples = 28\nvalue = [0, 28, 0]\nclass = Medium", fillcolor="#39e581"] ;
621 -> 629 ;
630 [label="gini = 0.0\nsamples = 24\nvalue = [0, 24, 0]\nclass = Medium", fillcolor="#39e581"] ;
620 -> 630 ;
}